{
    "nb_inputs": 78,
    "nb_layers": 6,
    "learning_rate": 0.0001,
    "params": {
        "W1": [
            [
                -0.2538151573329152,
                -0.022560997384553003,
                -0.14349700252187658,
                0.023449810205837897,
                -0.017877605401608893,
                -0.009362049146800553,
                -0.17448880859273191,
                -0.05962006483859157,
                0.044980988438431006,
                -0.04806704246290248,
                -0.024556663265729212,
                -0.28966282298290114,
                0.06454120568426223,
                -0.06840209168710862,
                0.1944975330162191,
                -0.20212463894353727,
                -0.00282056361032801,
                0.03519835864229154,
                -0.09923257968041417,
                -0.11097133670711933,
                -0.28581099827926765,
                0.08709365383212002,
                0.49246222503964415,
                -0.11013950736199939,
                -0.0885356792796178,
                0.034304705583447274,
                0.0432122591864133,
                -0.08352409790458197,
                0.0695036377664731,
                -0.06730077429586973,
                0.09022538489015562,
                0.031211575528289452,
                -0.05084279236164367,
                0.11322651111543063,
                -0.17832000081374857,
                0.10164709571496695,
                0.2091211090574823,
                -0.19167952971819693,
                -0.11430883188190344,
                0.038464270294743155,
                -0.050029488045701495,
                0.08221363041396194,
                -0.14105226291636877,
                -0.09401738806978728,
                0.07805484862015505,
                0.29290847635838946,
                -0.1388569758541345,
                -0.12473444572494279,
                -0.2140591943937811,
                -0.15978517539963896,
                -0.13712954836235844,
                0.08402213015740821,
                -0.19805117341309755,
                -0.11784103997110855,
                -0.04625799376947202,
                -0.1529048277667812,
                -0.05633518723479277,
                0.006765404391634234,
                -0.23234610270101874,
                -0.0010275420177593972,
                -0.28012823449548147,
                0.13150672435173485,
                -0.07728513039736014,
                -0.14973178065828957,
                -0.19731949684608435,
                -0.09003785043068437,
                -0.03170753913684561,
                -0.2549071276165066,
                -0.12921102527055886,
                -0.3156171528795669,
                -0.19104900067910013,
                0.02302274738459798,
                0.046800343156906246,
                0.1538183136386753,
                0.2715411136726749,
                -0.06654898120596184,
                0.053918011768577453,
                0.10078164979696207
            ],
            [
                -0.16998913391299048,
                -0.11276542157356324,
                -0.12797436113017815,
                -0.8023142428898972,
                -0.24992225522376607,
                -0.0633246300941499,
                -0.06285132924692499,
                -0.22943859333160008,
                -0.04967890671897974,
                0.03299055260703756,
                -0.06435115644816976,
                -0.1152737553116762,
                -0.29265471504136503,
                -0.05531451693189497,
                0.3056111700896674,
                -0.0167632926149555,
                -0.08061776685602123,
                0.026846352467082574,
                0.11964988759241177,
                -0.01599626997680867,
                -0.0872895589670614,
                -0.10537677904961996,
                -0.08094499492570668,
                0.017195505211896937,
                -0.033159657291278,
                -0.09715374351500362,
                -0.0825439699405026,
                0.025027151864919075,
                -0.08011922992404674,
                -0.16667682355137203,
                -0.021706340164857046,
                -0.09416875044802774,
                0.060247276950776585,
                -0.09985281708322928,
                -0.27952331042273326,
                -0.0453618558660136,
                -0.16061709007661812,
                0.04751150584398565,
                -0.13955033342522571,
                -0.1399472440798214,
                -0.08869342543559942,
                -0.0691160409977531,
                -0.20523241218588906,
                -0.15735570409204966,
                0.07672593333128522,
                -0.012343497360272392,
                -0.0331002431764683,
                -0.05373990400096063,
                -0.10359550398997787,
                -0.15711836212703315,
                -0.15743137402922563,
                -0.20304065146696554,
                0.011904509366762881,
                0.13351190616081074,
                -0.1494790496071111,
                -0.0521498602313074,
                -0.04745898360059273,
                0.10678679936579727,
                -0.08226080594171921,
                -0.1737447027980324,
                -0.04546990413686503,
                -0.15435300150197134,
                -0.3065580294094867,
                -0.05630113467365114,
                -0.22232691897610782,
                0.03417252254503858,
                0.06479519105668227,
                0.2940975654816352,
                0.04391957628254985,
                -0.13834957950910132,
                -0.2679307206863144,
                0.16316490899361097,
                -0.05361095145959259,
                0.10632471997362221,
                -0.24108802819746136,
                -0.15732904059896555,
                0.2170894505844942,
                -0.3430112916311395
            ],
            [
                -0.07483356397688584,
                -0.08970828039248213,
                0.035448474550037336,
                -0.01565300813838286,
                0.06310862111190557,
                0.000651257277621477,
                0.001977333104417493,
                -0.17540715360659814,
                0.16991721043918265,
                0.01108878886376708,
                -0.05062481934110575,
                -0.11838905548950841,
                -0.031726460673462464,
                -0.06434964891507777,
                -0.31793757884549156,
                0.028487985899648953,
                0.14185876781922704,
                -0.274973249168137,
                0.03649743696140943,
                0.14612940561011073,
                0.07460986138068343,
                -0.09874933982396225,
                -0.10567800831161442,
                -0.04558814836472477,
                0.1010701163930764,
                0.06497165257235128,
                0.07854194556837966,
                -0.10214507885350783,
                -0.06016411885920362,
                -0.33035257709472665,
                0.0003173871873053309,
                -0.06187249880374629,
                -0.15585654218894981,
                -0.08573463584564099,
                -0.05955633481573526,
                0.13913769292411363,
                -0.0748184754556532,
                -0.19942641290619367,
                0.0032998350513242904,
                -0.11525288316754034,
                -0.06465937173398474,
                -0.15636213248933373,
                -0.3413884071334743,
                -0.004474028233151644,
                -0.08765825287063408,
                -0.11129663419259353,
                -0.16677121649282328,
                -0.0322432394010062,
                -0.13230516516485294,
                0.09259736427836458,
                -0.18115522553321695,
                -0.39530710061377405,
                -0.1412923435292558,
                0.08087492600819288,
                0.10615622847118837,
                -0.031923413252394485,
                -0.1763090873031913,
                -0.16236913721063678,
                -0.14908390278189337,
                0.018683733725528798,
                -6.899684023199946e-05,
                0.025726733985193494,
                -0.19680793426259793,
                0.09656702161954016,
                0.41840429302502363,
                -0.09005051101755022,
                -0.007894276314957926,
                0.06369141818184078,
                -0.2357434674631351,
                0.26381817080288805,
                0.029070312502987614,
                0.2930755364444301,
                -0.17776885753712263,
                -0.0917029824319534,
                0.3233537299472479,
                0.17066599548154288,
                -0.26366613720046184,
                0.13588497415489273
            ],
            [
                0.298734541388097,
                -0.08050753784694388,
                0.12262875017724757,
                0.05452436871313203,
                -0.04362170407052192,
                -0.1555679545983981,
                -0.10517354379280557,
                -0.6748391439658626,
                0.06176138658363698,
                0.021946847257081317,
                -0.11464697400457571,
                0.1260984843118024,
                -0.18554188137853955,
                -0.0007051060096204006,
                0.10660516117170603,
                0.014813733886846689,
                -0.025821622501776543,
                0.002242997679344525,
                -0.08676746482012403,
                0.07928865797581028,
                0.27902690212054254,
                -0.07996127198700383,
                0.0715196465836996,
                0.2559274579052629,
                -0.03970341809160261,
                0.038951608544429625,
                0.16863769185115238,
                0.05827701700648527,
                -0.049479424111111676,
                0.07371285204794606,
                -0.06674605498799789,
                0.24596939908129684,
                0.09080187840136,
                0.14179745075961722,
                0.16508854192897038,
                -0.10224346158573579,
                -0.09224195991812155,
                -0.08146848714616463,
                -0.017602699181502333,
                -0.1720108159531413,
                -0.09247741726652293,
                0.0504553193740827,
                -0.0355674342519316,
                -0.05100451625380573,
                -0.043232752259184895,
                0.0027772159469865876,
                -0.0717956702928364,
                -0.15085815913295095,
                0.1535959771512906,
                0.08410404731760372,
                -0.029080042394824736,
                0.053659045422719355,
                -0.05754113099105271,
                0.029673876155847743,
                -0.21905450753244204,
                -0.10926190943423354,
                0.3012682881627736,
                -0.09858515781625594,
                0.15866997229917698,
                -0.03223982918611512,
                0.10245619052390126,
                -0.14194235402485508,
                0.04505428991327052,
                0.0040164954087571585,
                -0.42245148173750613,
                0.005627210554273073,
                -0.06443505953467554,
                -0.1201395985493341,
                0.3787446880947308,
                0.3779563897185577,
                0.17712930486323922,
                0.21200796087227314,
                0.018818444900932405,
                -0.060815700129933974,
                -0.020582761569209882,
                -0.021477729323055923,
                0.3172106395748633,
                -0.06967683510284264
            ],
            [
                0.11975104242253948,
                0.0397168496186203,
                0.13704712929322937,
                -0.41672662802941207,
                -0.5756536139873543,
                0.10070803478928769,
                -0.01839714896868011,
                0.21063818243142565,
                -0.05495034327986222,
                -0.010208099333774557,
                0.22032556153533145,
                0.07132900114221202,
                0.05442218656678108,
                0.1941635630094774,
                0.0011648693619197663,
                -0.08711907266470942,
                0.0045390406732069895,
                0.009798555568335436,
                0.029069905965714276,
                0.12335539118718632,
                0.06118582927261126,
                0.3910644904375297,
                0.14209651767060066,
                -0.06480815318682341,
                0.2919328712134246,
                0.12464995687313533,
                -0.1819514827162059,
                0.06207117156691636,
                0.24631302288608053,
                0.1267858126470096,
                0.05293664334894862,
                -0.03582820759474156,
                0.1872151264266016,
                0.05356437446262218,
                0.11524162935156025,
                0.1270192131961907,
                -0.008813434142338147,
                0.047789944909001764,
                -0.20600697714011068,
                0.11398679132181806,
                -0.15227675672857405,
                0.09893856822586322,
                0.051832910620622376,
                0.1319100954265355,
                0.09900227751055662,
                -0.04351301445544145,
                0.054351232355209785,
                0.1750887655271643,
                0.0124166748563394,
                0.18809081871143438,
                0.10632270668987646,
                -0.019453928854137895,
                0.1420548895065436,
                -0.09941630495820103,
                -0.050295796303764746,
                0.10666266184403081,
                -0.046459029103690444,
                -0.07708466541857846,
                -0.10177215727764105,
                -0.07819905197725853,
                0.029069407239380233,
                0.1570801889018375,
                0.23766294900657906,
                0.1251873753647813,
                -0.18559389357718842,
                0.004543366200038234,
                0.2979654576946092,
                -0.023191931654058997,
                0.2394452467527365,
                -0.03387728716222899,
                0.19368971006918986,
                -0.11074354427723354,
                -0.11927913791410133,
                0.07661976095359266,
                0.08956381879478606,
                -0.1427932808574938,
                -0.012198023191123524,
                0.3648899656579794
            ],
            [
                0.11480809368830089,
                -0.07362702687079763,
                0.1478401160026256,
                0.08199107484316814,
                0.20500239307435,
                0.09364303569890092,
                0.0054442799307078205,
                0.13723389186970045,
                0.13334990875188987,
                0.10131276881600315,
                0.06947849023607067,
                0.11381874021862971,
                0.026222624707191677,
                0.23627143443618548,
                0.10589213440561024,
                -0.010000743227549387,
                0.07601532538147124,
                0.10397268856636149,
                0.1328847062288732,
                0.1535174498319475,
                0.0636370886797668,
                0.3115768174671671,
                0.19187634211650642,
                0.0414705404248583,
                0.04072594007181219,
                0.0038992693157614195,
                0.13811739623649566,
                0.1593252006907598,
                0.09898024975927094,
                0.060902131709286655,
                0.16171716612100448,
                -0.007360619710172158,
                0.00890120930141155,
                0.07578894514978483,
                0.1230121912772177,
                0.11564676317111892,
                0.1240273443398348,
                0.03092908422871476,
                0.1277790007542402,
                0.01083220492355027,
                0.02130438383171521,
                0.18582596954236427,
                0.0971123304452305,
                0.11140973391767683,
                0.047607169951360516,
                0.2786990757227813,
                0.1367060276504859,
                0.05575144063848604,
                0.12125991088012336,
                0.1118289013533641,
                0.14273586517944734,
                -0.06289552710970661,
                0.12778757029394694,
                0.011061391128815087,
                0.14022183046263892,
                0.25757018989450575,
                0.3302164789870267,
                0.13734886979210914,
                0.15533440210042063,
                0.30832151060120355,
                0.6524078503819096,
                0.10502087335074925,
                0.017804875415639368,
                -0.09140685641832232,
                0.39277927321265466,
                0.2821849993262952,
                -0.005480675894055483,
                0.106723831449184,
                0.21399694082295512,
                0.16204939112415942,
                -0.1377461764730373,
                -0.1338101737883013,
                -0.28040474088339346,
                0.3755657945499467,
                -0.10756015599709867,
                0.06354926271290219,
                0.0589764225974688,
                0.11253185241348754
            ],
            [
                -0.08193182416787202,
                0.21174228556986577,
                0.040801493963525996,
                -0.3645309185722511,
                0.1647970730100211,
                -0.034430167026683736,
                -0.2738659169798178,
                -0.12313630518734031,
                0.07879711057085416,
                -0.09095418042457956,
                -0.1396470100568746,
                -0.3132921561940673,
                -0.09701798195168145,
                -0.04852000749710449,
                0.001244459727050408,
                -0.0542279719104312,
                0.040133293934153054,
                0.01959110229779388,
                -0.2374176075616681,
                -0.05507435506616712,
                -0.056675086858577674,
                -0.088495421031935,
                -0.20568701554451993,
                -0.22659652359068874,
                0.19148884474369293,
                -0.08976333915726528,
                -0.1546020116138637,
                -0.07454232123421489,
                -0.06344804450423207,
                0.00019580755881121246,
                -0.006937537659907598,
                -0.2297879693868665,
                -0.16195967356261892,
                0.07830211311035148,
                -0.0463808565848662,
                -0.1056464457230899,
                -0.0028727030496004764,
                -0.3316466636712421,
                0.0027681128790715344,
                0.22100313161684107,
                0.09486307259520853,
                0.06176914866578687,
                0.04327994080979109,
                0.09844692161816479,
                -0.08872363823817321,
                -0.2515590036967303,
                -0.335291392912036,
                0.05010866385798734,
                0.20592412626702558,
                -0.3554700029883184,
                -0.3298186613495186,
                -0.07806264580085077,
                -0.021323017313229328,
                0.06761797399062205,
                -0.057921733754431284,
                -0.005176866710335734,
                0.06248604162997769,
                0.04372048206430059,
                0.03181904172723736,
                -0.11969624856071001,
                -0.18601463515768513,
                0.05541803329213165,
                0.14990610100839152,
                -0.012879705924499227,
                -0.32612085437938104,
                0.41582502860368115,
                -0.09109780049322444,
                0.32838004668922155,
                0.025611437145705657,
                -0.17684770865245417,
                0.010102193948395993,
                0.24408119366519293,
                0.27830845784651354,
                -0.1348578324787589,
                0.09876195936581837,
                0.045386268002438244,
                -0.06638567341505415,
                -0.2563092774385332
            ],
            [
                0.05886367124069854,
                0.017753500102591645,
                0.1751732535114631,
                -0.17166130075077346,
                -0.09987500587730008,
                -0.19069575796428037,
                -0.3941152884626731,
                -0.19100849532931463,
                -0.2115875381444067,
                0.0017425134485937813,
                0.13184548346178915,
                0.04359089116874205,
                0.16869739849836038,
                0.035555818842392915,
                0.01339807421709595,
                0.2072575687361025,
                0.039975033868174206,
                -0.164348697383654,
                -0.00816124813376723,
                -0.028319936721363823,
                -0.05296307260580021,
                0.04207658012414863,
                -0.06717741978781869,
                0.1485956081951737,
                0.08126351982740979,
                0.068957406359282,
                0.0760585960174331,
                -0.06311874352165202,
                0.08030744684705485,
                -0.058894568393579406,
                0.05721483178312774,
                -0.08270161120889616,
                0.11413650691078817,
                -0.1391351861041247,
                -0.024550677867615226,
                -0.012539312150597467,
                0.14647058802934176,
                0.1103957705912343,
                0.04538627192845447,
                -0.3736379470973635,
                -0.2628977334623185,
                -0.13614866491558497,
                -0.10626187636767907,
                -0.09815883307139103,
                -0.22627549621499202,
                -0.09874182897001473,
                0.004552096890363586,
                -0.16736763768649776,
                -0.09431959834684611,
                0.009198794378884975,
                0.06365261933090101,
                0.0827759046034867,
                0.10823101471571947,
                -0.0004336967307467334,
                0.030094728201625395,
                0.12956121183406843,
                -0.17549330161673804,
                0.10870821289201275,
                -0.2374741039127104,
                -0.08760100592173259,
                -0.004866832402001064,
                -0.08337803507533337,
                -0.09855457795804239,
                -0.13450336528802448,
                -0.20359514826569283,
                -0.20883188323038304,
                0.20326755279914063,
                -0.025466511844729693,
                -0.05289151311886886,
                0.034210941698877714,
                -0.3185137865833574,
                0.0783487693012638,
                0.39431868053079544,
                0.14289698884112825,
                0.18835784212182233,
                -0.20912278417061334,
                0.17027976490447969,
                0.006246190752851975
            ],
            [
                0.262779228686611,
                0.012162963769789736,
                -0.07063033984392028,
                -0.049098343929389186,
                -0.9636853388405321,
                -0.03093890667309489,
                -0.0505541436504356,
                0.41501835436153084,
                0.036811093196510006,
                -0.04644210601031881,
                -0.0660221045447857,
                -0.13007824567649395,
                -0.11475028028078378,
                -0.13110168530632085,
                0.02268623901985205,
                -0.015547800972869391,
                0.0019071750145018204,
                -0.04005330399545623,
                -0.08850993812993806,
                -0.10369592698213397,
                -0.08879139076764986,
                -0.17505168988892073,
                -0.1783435022074922,
                -0.23048990561909682,
                -0.037812762706930375,
                -0.0846613043325014,
                -0.06133840650580823,
                -0.1401054833129238,
                -0.10726215401852016,
                0.025065809984479326,
                -0.03314923115384705,
                -0.1799816110084119,
                0.04209836104591957,
                -0.1103580789067988,
                -0.05691405745125222,
                -0.04808897453688809,
                -0.010863495224202858,
                -0.07217558978947912,
                -0.01618312092158791,
                -0.09072712913228738,
                -0.018313590703154158,
                0.008060231757412193,
                -0.06181109734529395,
                0.08767603331528773,
                -0.050150116721750834,
                0.0754152777340861,
                -0.06670002440689449,
                -0.35465978637088647,
                0.03953358055018016,
                -0.08572444018223856,
                -0.07406766053623133,
                -0.02646641394167197,
                -0.2055510627592165,
                -0.11310701281957265,
                -0.0296634407771936,
                0.03848537833617753,
                -0.013059376079570554,
                -0.19706020703813182,
                -0.19648442750642442,
                -0.06653893625549256,
                0.0618047227555774,
                -0.1664758918184086,
                0.03018991169433187,
                -0.004788950802088766,
                -0.37587311611586566,
                0.1852769235317458,
                0.04738370809749094,
                0.17518079512375467,
                0.1417543613057714,
                -0.15324453093754348,
                0.31174694339984305,
                -0.022719811127008133,
                0.15223134490626364,
                0.03445072856576294,
                0.07387899044737326,
                -0.122320014883177,
                -0.05171117715579461,
                0.06844122915348518
            ],
            [
                0.3100975315708524,
                -0.2069749619250858,
                0.22980927182331898,
                -0.03951235235950685,
                0.10728418917114818,
                0.06549073902535547,
                -0.02001357255400123,
                0.3665440893701054,
                0.19338649409556374,
                -0.07999042936632725,
                -0.29006526954431877,
                -0.05388147983686501,
                0.03978066539312719,
                0.07577510807284468,
                0.19912450768377465,
                0.2567496484752597,
                -0.19503629389324154,
                0.027070939131688967,
                -0.026884373139033694,
                -0.17604306198438688,
                -0.2344727926111348,
                -0.16791149211920867,
                -0.05158756114073104,
                0.216825892611722,
                -0.025176220044438292,
                -0.07350175310065418,
                0.055790002745333384,
                -0.14615919037245367,
                -0.08912992791701065,
                -0.036124170104864364,
                -0.07139982458960793,
                0.036996664249866654,
                0.16610662138025306,
                0.042272740039968934,
                0.07916214556244176,
                0.015471976184429108,
                0.1396151610371214,
                0.3314140736297781,
                -0.25612243985434013,
                -0.11533472859390896,
                -0.13516649089603938,
                -0.17871102788210713,
                -0.028783070329627097,
                9.416929275850929e-05,
                0.05002641649131179,
                -0.06976287431076647,
                -0.10596674716055608,
                -0.26555920391897625,
                0.1378551269820877,
                -0.0297928625997352,
                0.05548267684568753,
                0.05495411947171496,
                0.011512573163086242,
                0.03468653914753299,
                0.2527560710122414,
                -0.22084670347171964,
                -0.06458899512482874,
                0.12785468700685218,
                0.020952574260142163,
                -0.053696680523929216,
                -0.06640963666997363,
                -0.13410939923136916,
                -0.322127569866886,
                -0.2870612286922785,
                0.0699461882949433,
                -0.022098109285915997,
                -0.020848148785392703,
                -0.04839801770949758,
                -0.009746250728174746,
                0.23337585483458928,
                -0.25753445629943644,
                0.07627295939867662,
                -0.23554754006906695,
                0.019384670664300628,
                -0.04092501386497479,
                0.3567009062534518,
                -0.19602043034047612,
                0.09398691519534276
            ],
            [
                0.2898475828452545,
                0.2519213390110977,
                -0.1152868992689016,
                -0.39841451293422764,
                0.018588677109124204,
                0.1734994514383925,
                -0.10636017267326402,
                -0.12272498521689243,
                -0.15405509569431075,
                -0.14630164033987672,
                0.09271228322895571,
                0.19075596414657628,
                0.10617238944439597,
                0.306494729882798,
                0.10347729186863298,
                0.33884901904169484,
                0.006163923445915208,
                0.05888503728937585,
                0.013055699149281084,
                -0.02478281142666764,
                0.12212842356409125,
                -0.013766078359806038,
                0.007654754429084258,
                0.0955686056498105,
                -0.16765382123558362,
                -0.07081362546542448,
                0.1010441944690414,
                -0.005234480112276579,
                0.03289286283182237,
                0.10973349943796158,
                -0.09449750817976917,
                0.0018720093132590452,
                0.034743743733703994,
                0.07444048006725848,
                -0.041641680177976245,
                0.06203375554717466,
                -0.021032476028676302,
                -0.14183006667762213,
                0.07302044687009773,
                -0.06166127118429378,
                0.0382819011625743,
                0.20061257339921912,
                0.08876642990591821,
                -0.0818465238840378,
                0.062917885200464,
                0.05543695106902214,
                -0.035486154739121305,
                -0.005946815575255817,
                -0.03611621741622345,
                0.0882315148555864,
                -0.044019226300819184,
                0.11108994523093142,
                -0.043114003710134706,
                0.14184183239068046,
                0.11150128932831102,
                -0.3015003795378029,
                -0.0005980867007780281,
                -0.452493517731123,
                -0.012494708443421593,
                -0.07466867485108868,
                -0.06758468135764649,
                0.044707865478937174,
                -0.005040626721449485,
                -0.06661124221772842,
                0.021413810095469724,
                -0.02958151411811495,
                -0.15093199891672046,
                0.10209894692306849,
                -0.14965109417602263,
                0.0700709099193293,
                -0.17511942505137013,
                0.0279783879354712,
                0.07469159246775947,
                -0.3321042851003674,
                -0.01230615666598332,
                0.1707308211535947,
                -0.10519849567760682,
                -0.36988057247360245
            ],
            [
                0.05816143030222522,
                -0.14208319150726273,
                -0.116849997394343,
                -0.1720770629661154,
                0.18023020654719793,
                0.049523559743705384,
                0.04880637171361041,
                0.1867607962977578,
                0.16087528859584044,
                0.10144363050860704,
                -0.07562495471959556,
                0.06611562285482726,
                -0.0402864193384977,
                0.15078287565687243,
                0.11917467224279976,
                -0.05744274099137632,
                -0.03536204555454386,
                -0.032330398360988756,
                0.11585440605068405,
                0.14441516086821643,
                0.00862196206639494,
                -0.011161036473326969,
                0.0827884962345151,
                0.05361034586840599,
                -0.0885232755557683,
                0.05601122169112465,
                0.07893389571616197,
                0.04715641870439726,
                0.0291987902754351,
                -0.0657861214100462,
                0.07074877105828963,
                0.17745260736768187,
                -0.10121402878825067,
                -0.028309880705458427,
                -0.03219211446975281,
                -0.06306099736935045,
                0.17313309885723902,
                0.13503317483334173,
                -0.052794748655241266,
                0.29768640861956036,
                0.10110379514641625,
                -0.06885567024209621,
                -0.0017995428300777473,
                0.11228286236789295,
                0.19366765090981325,
                0.04389387534246524,
                0.03176431690376416,
                -0.2660851205056272,
                0.21325535396469855,
                0.09625140549875245,
                0.11928960347410326,
                0.11460610536979504,
                -0.023330967089555864,
                -0.019653409842669802,
                0.03140759395835245,
                -0.043990094088998705,
                -0.13597960578013665,
                0.007408040845766704,
                0.04182435184976108,
                -0.17083666449462506,
                -0.36503206783038844,
                0.07967847858495254,
                0.47559949583299105,
                0.3271384625943348,
                0.5041446716740732,
                0.17711083947587616,
                0.1447264287824157,
                0.11087399982348943,
                -0.012865913649531052,
                -0.11465798143587455,
                0.19636465396585773,
                -0.23359777524907036,
                -0.06635584705648712,
                0.13160546029178063,
                0.07530011902724129,
                -0.09214996640392199,
                -0.029318025923359792,
                -0.10561857447707013
            ],
            [
                -0.20655914266622724,
                0.17941972350881993,
                -0.09130722790179044,
                0.1218864305704128,
                -0.0477110717512558,
                0.323795103347701,
                0.09067936283044474,
                0.21594462387880167,
                0.08641792335607973,
                0.13303308475683143,
                0.01448288634665844,
                0.1515395055387686,
                -0.03327171756605809,
                0.04762581781280394,
                0.10334470803390543,
                0.020813932213789375,
                0.22462835937468859,
                0.10298656700546686,
                0.07023995297352507,
                -0.08151414704692131,
                -0.060434155649651745,
                -0.06800588515172719,
                0.07227959012948237,
                -0.02980323146412042,
                0.10368844874593555,
                0.027399738472574486,
                0.03428440564600518,
                0.11685496335050766,
                0.09823941012585945,
                0.012992231071173234,
                -0.05173378906661937,
                0.2526170642996889,
                0.1628441140426488,
                -0.01802238583225348,
                0.14995326799188066,
                0.11528600714342732,
                0.13854737594020963,
                0.04500854329827747,
                0.018540997846549126,
                0.1417187777625926,
                0.12174901215912776,
                0.10383123304751629,
                0.029467485788716503,
                -0.030273435440495145,
                -0.19289522851032573,
                0.01419186711318067,
                0.3122390562091701,
                0.09883918547540743,
                -0.07816772332076306,
                0.09312617148782808,
                -0.010204051806975737,
                -0.07117049913232187,
                -0.039314479179612456,
                0.17100439401565498,
                0.39008715140263533,
                -0.2369261390055083,
                0.1361888336364574,
                0.25408041434098744,
                0.49662645263899846,
                -0.03197090530830616,
                -0.0677699996869221,
                -0.00025937122879420694,
                0.16655023883449144,
                0.14483203407618855,
                0.5191414299339685,
                0.08609285114877642,
                0.056573109026288315,
                -0.182700076725029,
                -0.05789275747320755,
                -0.18303066042714142,
                -0.04376317016764429,
                0.2054197941813699,
                -0.2724724116706053,
                0.09865784752265176,
                -0.32618620796871434,
                0.0166546146697103,
                -0.053697181953847956,
                -0.08427887002115134
            ],
            [
                -0.049950368171735426,
                -0.01709316915194321,
                -0.09638168137631571,
                0.26170788316235394,
                0.22013606024138468,
                0.09417559421346537,
                -0.2518411498551254,
                0.5043874568733216,
                0.26940279898264813,
                0.337537398010678,
                -0.053742301661625136,
                0.00793058708569524,
                -0.0901650557892908,
                0.0486269586043443,
                0.07401306141877977,
                -0.29390616732462743,
                0.09701857224019615,
                0.05326114893610202,
                0.0897894368424932,
                0.0869837896521314,
                0.4288381026577286,
                -0.07875522365228751,
                0.17784277925204647,
                -0.018693226166832583,
                0.1796242687261941,
                -0.0700914277520949,
                -0.12058353617115387,
                0.008628665098479083,
                0.007287954390974289,
                0.11730126399331281,
                -0.09288550892151666,
                -0.05476125040570658,
                0.08835609458957587,
                0.057586098872304245,
                -0.12168229822855167,
                0.08747714427412118,
                -0.10632634076999634,
                -0.04058537275557395,
                0.07211830453350394,
                -0.12131832718070981,
                -0.3297569510185505,
                -0.059279734755890254,
                0.20646549777893308,
                0.13503832399928536,
                0.1045048518740186,
                -0.10199465121057756,
                -0.09607966074269167,
                0.3126486364285595,
                -0.1658784398793584,
                0.085596627432338,
                0.13790649264455448,
                -0.08992450995753438,
                0.1258632235978843,
                -0.01908817518317037,
                -0.112148773588371,
                -0.19394739099374003,
                -0.05974626712611793,
                0.06507578294298709,
                -0.09789845124924638,
                -0.07359994600180117,
                -0.09302211822026245,
                -0.027896387748838604,
                -0.06143150504017726,
                -0.08920842814937975,
                -0.1653679933832733,
                0.23173454911309438,
                0.08668768944508452,
                -0.047739864547189044,
                0.32661942563904756,
                -0.024017213027441975,
                -0.0678745141007536,
                -0.0667300810562528,
                0.04158586512260499,
                -0.11727398313380964,
                -0.09812419271555779,
                0.039309580269820885,
                0.015611710605693066,
                0.02313959089893171
            ],
            [
                -0.14307542187397307,
                -0.22913315075237428,
                -0.16239418820113294,
                -0.134364140263997,
                -0.19711762938699476,
                -0.04889102224271773,
                -0.07526678289917009,
                -0.20592903808370586,
                -0.14510721815743258,
                -0.19983591449950588,
                -0.1948766089518637,
                -0.08996067773414568,
                -0.16376629743629345,
                -0.10826774547038444,
                -0.09858010616973999,
                -0.15993246209291268,
                -0.10617528638023806,
                -0.16686037697982006,
                -0.20068617063736463,
                -0.03880798688780962,
                0.012497113045903636,
                -0.20717710876334683,
                -0.12349305197747117,
                -0.013580794230337088,
                -0.08245179849189038,
                -0.12488518992815636,
                -0.20704523164924674,
                -0.20268671910616118,
                -0.15303447315949625,
                -0.17446212420040125,
                -0.17344441142179767,
                0.08873201841328218,
                0.07347007751069655,
                -0.1902714155788578,
                -0.051696610552554555,
                -0.16892962442819112,
                -0.1481473139206067,
                -0.20203071926296085,
                -0.35547986010046395,
                0.027506508997657234,
                -0.08291667679448762,
                -0.26480231805678545,
                -0.12094936704507403,
                -0.12796917145932787,
                -0.23817283538378853,
                -0.039149082405986316,
                -0.1324763466253711,
                -0.1982779017377751,
                -0.08530964230047136,
                -0.1446857619708818,
                -0.07369174113530338,
                -0.24755905679171542,
                -0.16638137661975902,
                -0.006064410031585592,
                -0.061768860505600175,
                -0.2729738589686814,
                -0.14156488691583688,
                0.08234657882157607,
                -0.013055068211671326,
                -0.031166542987008224,
                -0.06849829807013788,
                0.5108670402085852,
                -0.20763967908914113,
                -0.537361983460893,
                0.2482194773683312,
                0.08177466049877521,
                0.23850408918821048,
                -0.11983598670089471,
                -0.28650065999513097,
                0.1029589376967384,
                -0.14023513636719556,
                -0.05823049528802092,
                -0.0010101488193889668,
                -0.030867054097808124,
                0.04355582062266331,
                0.21810273214947354,
                -0.19592292155789873,
                0.39212411824107396
            ],
            [
                0.4309378390490538,
                -0.06256666504150356,
                0.272603714081111,
                0.1272696570108529,
                0.17043164296037383,
                0.18120055735656154,
                0.014296661836428663,
                -0.395589429255039,
                0.2291774977018276,
                0.16516185790479881,
                0.05447209942251985,
                -0.0783274529542289,
                -0.1543580761198115,
                -0.15278287847866698,
                0.13067535499929078,
                0.07482674399240365,
                0.019977056839603442,
                0.014592595287173504,
                -0.0798671790541613,
                -0.25453127909664136,
                0.028331054029217994,
                0.23530916729020343,
                -0.007818265521382223,
                0.17766119530167368,
                0.0324583792029689,
                0.1681382655353115,
                0.13275463144741317,
                0.055698277789246596,
                0.10289070793319664,
                0.022012388613906978,
                -0.0010198568534439804,
                -0.07471924194734778,
                0.07621601103031045,
                0.0978968127196411,
                0.17468164152164467,
                0.1436802565267301,
                -0.11865727237070871,
                0.06971529583900235,
                0.019534853463256622,
                -0.05148303555765524,
                0.048799494691225326,
                -0.04646417399197657,
                -0.08859180938640909,
                0.02360131699894246,
                0.05136091229334671,
                0.035370138699036484,
                0.16764677084720322,
                0.014328188730702551,
                0.13446848741925488,
                -0.0027716335793059052,
                0.040619976197334505,
                0.08654642324531861,
                0.14781462353939495,
                0.0331025165791529,
                0.19038039185140115,
                -0.1187884271784585,
                0.048114886909996483,
                -0.016858509994307037,
                -0.021303271208728283,
                -0.03633383006741708,
                0.002532812674593632,
                -0.011758571996056465,
                -0.20382710177107874,
                -0.14517257721417406,
                -0.7104964482614163,
                -0.13225153042999402,
                0.24040488394962375,
                0.20565681957597404,
                -0.11679515409499414,
                0.05775009932275142,
                -0.07487854982948396,
                0.021677372062197914,
                -0.19740506219637613,
                0.14196919275295466,
                0.0026548388746764225,
                0.059643968835711055,
                0.11961068775782631,
                0.13123328195314524
            ],
            [
                -0.09438964219469505,
                0.237600216859876,
                -0.15103277041198201,
                0.21629617529559061,
                0.17894211541455737,
                -0.08633261858952367,
                -0.017173834740794276,
                -0.05796477271502832,
                -0.1289605910968031,
                -0.02386168590915444,
                -0.026508915061276374,
                0.05949600279333097,
                0.01085921689034772,
                0.044650268067503586,
                0.019812950838424884,
                -0.044102221036470095,
                0.2978811603115725,
                0.015304022637552539,
                0.034786750604696395,
                -0.039103901671243495,
                -0.06529692882095647,
                0.047732782814736925,
                -0.08025227465518948,
                0.34744648343400775,
                -0.07902740776385453,
                -0.022254866088744926,
                0.12750166214985809,
                0.028883530521101437,
                0.042653822561702553,
                0.17321897688270282,
                -0.0037301103110515656,
                -0.03850319167934436,
                0.10465273177591652,
                -0.06126190146746064,
                0.05196761694756249,
                0.0990399905739025,
                0.1186922129592595,
                -0.04321866017811653,
                0.10471834609496686,
                -0.21896170888570096,
                -0.14414913961860149,
                -0.03835443506260997,
                0.019295855385802828,
                0.20626035286430752,
                -0.09213164090347047,
                -0.06307502409550987,
                0.3394040953314134,
                0.027684345798702097,
                0.008445385414570896,
                0.0847849855157931,
                0.08571622735963477,
                0.03200332119742601,
                0.1288510338439735,
                0.019611931279503364,
                -0.0681119050405362,
                0.2718715944726635,
                -0.25357164918005526,
                0.011117563178193271,
                -0.12015351104220774,
                0.029178830111489484,
                0.38668282490720357,
                0.2890162441003483,
                -0.09955515875674262,
                -0.11033956957521078,
                0.419072972274575,
                -0.4406064534895416,
                0.021884894644252157,
                0.15321497581409677,
                0.013578992603304493,
                0.07522587870051044,
                -0.1259034993675815,
                -0.15028073790745353,
                0.011600506909730702,
                0.0582197253968707,
                -0.22383941126133278,
                -0.1431050976427183,
                -0.06489722318786789,
                -0.3474374939265652
            ],
            [
                -0.03697076414798122,
                -0.14866429265509917,
                0.15988302837558385,
                0.32425019733426136,
                -0.07822414367966671,
                -0.12213036918180883,
                -0.06864359202549829,
                0.07686392347985431,
                -0.18732026045999758,
                -0.07553067582265,
                -0.08869990656642068,
                0.18449565283929262,
                -0.02591334052862365,
                -0.06663779435927515,
                -0.19828353682278896,
                -0.019054505665637073,
                -0.15718465246993876,
                -0.05757323343534418,
                0.0506626673389718,
                -0.19430834163269978,
                -0.24862890695287074,
                -0.01508724829251857,
                -0.19986200768482,
                0.45871046760969775,
                -0.020378748125927177,
                -0.14020945965777737,
                -0.09832613296174937,
                0.1345416394200518,
                0.141805593584234,
                -0.08010563354409983,
                -0.06643712524018892,
                -0.018478563168780444,
                0.09333728238741026,
                -0.06165884389636154,
                -0.050384395994910125,
                0.0220498823311516,
                0.1086287381127451,
                -0.034370257834506875,
                0.10300916874872573,
                -0.15981266175364645,
                0.2408553311163796,
                0.005553634699924077,
                -0.08591868850115011,
                0.022971782518477417,
                0.008055017806791827,
                0.07526798489988747,
                -0.3766697433707466,
                0.05468742438473811,
                0.21361215991790422,
                -0.006948812523834421,
                0.01574799524581367,
                -0.003778463621279098,
                0.0947896079265592,
                0.11317824551061968,
                -0.030580837226352766,
                0.12884593500759103,
                0.3510877552718182,
                0.012287911202780036,
                -0.29438722630817266,
                -0.15420254893733323,
                -0.12592648934637346,
                -0.12515452988971168,
                0.13433524333788693,
                -0.026849528848241825,
                -0.19177393270754986,
                0.31826374995702406,
                0.06443095198282317,
                -0.0010540697327996314,
                -0.18478787692532458,
                -0.27510912638904383,
                0.10127826511529571,
                -0.0636699336583499,
                0.09124496900489076,
                -0.0657026017872091,
                -0.0033654950021479646,
                -0.1324369703182693,
                -0.05168704444947589,
                0.10850862767641052
            ],
            [
                -0.027779775374455525,
                -0.16050323298704564,
                -0.09283361177973254,
                0.021879197682651483,
                0.05554686850296417,
                -0.020682428241225924,
                0.06369573001084816,
                0.16750816654407888,
                -0.1971615279713394,
                -0.36075972509397297,
                0.15320609027145732,
                -0.017517226213908933,
                -0.009627173364356196,
                0.1431477897457691,
                0.11138090165845985,
                0.03955153365860002,
                -0.04302921342594215,
                -0.2569411444587277,
                -0.1325670490263868,
                0.008523704684598265,
                0.16039188031857476,
                0.09284632933308179,
                0.03706441984196121,
                -0.036667658872859714,
                -0.05609592756572452,
                0.12775231754058536,
                -0.11257818422870708,
                0.13331234712937734,
                0.22715421140309774,
                0.0375431405494187,
                -0.05576765811028504,
                0.18631432943263931,
                -0.01886347420402355,
                -0.18965783643417566,
                -0.4098846659648486,
                -0.02493980108295066,
                -0.29777791106198626,
                0.20675987984345615,
                -0.27256541218123403,
                0.14462473527929892,
                -0.030540780954757,
                -0.08827308342922913,
                0.06962471100931626,
                -0.13891396679961068,
                0.12389060643728177,
                0.031893853655777876,
                0.22533285001225845,
                0.3688146961762042,
                -0.00023152175417692666,
                -0.043951418628571666,
                0.2709905921480409,
                0.038190551707526055,
                -0.04208959985394845,
                0.1645246347082784,
                -0.028444683910974808,
                -0.1452207610618713,
                -0.1034460063225144,
                0.1790257908877272,
                -0.052829183406615625,
                -0.07534227531954037,
                0.01709260149783031,
                0.19528434832296673,
                0.25141826862686234,
                0.12364905559383402,
                0.09008107893459949,
                -0.19418805520082438,
                0.042118318968401076,
                0.06092612458486669,
                0.10248768663676051,
                -0.00647223382282097,
                0.07159889367655517,
                -0.13000303521769774,
                -0.31001681057057023,
                -0.018478784500304046,
                -0.2325813039806045,
                0.04937602042141221,
                -0.11779893715891385,
                0.138394176516672
            ],
            [
                -0.0462794040343478,
                -0.1850048748961038,
                -0.10925896154301268,
                -0.04160256671504452,
                -0.05003478126348009,
                0.11579599776464046,
                0.22626174718356729,
                0.1484141995599267,
                0.01929742880145845,
                0.023684304438256813,
                -0.03326227338768093,
                -0.14963750459123984,
                -0.17816578228952107,
                0.15636902591590318,
                0.5610830053753119,
                0.41623007580668925,
                0.015692893297533348,
                -0.05350376787670534,
                -0.13586502295683126,
                -0.07469892772450015,
                -0.002141592374970574,
                0.0025761516374301573,
                0.29301345221576597,
                0.1648244779603382,
                -0.00043407715219306755,
                -0.0678094991472961,
                -0.11558293570136007,
                -0.07244406488346816,
                -0.09953360560834623,
                -0.10607400569108284,
                0.09872012792702343,
                0.047600920211901494,
                0.07880876033154921,
                0.05021836788687835,
                -0.10969636439756361,
                -0.25366643005673895,
                -0.11634881006781628,
                -0.04423621118853142,
                -0.0034976034015367957,
                -0.023333879998712385,
                -0.0770380580088,
                -0.17490896785033597,
                -0.15614275022124208,
                -0.17758302518612468,
                -0.0883743326182069,
                -0.12281480887085695,
                -0.06414458462657482,
                -0.07652251229771677,
                0.005856615665730366,
                -0.07505165211115837,
                -0.10950561544311083,
                -0.09869250055924118,
                -0.021969475271260384,
                -0.49823523393522756,
                -0.21338378986909176,
                -0.2170823012786897,
                0.02989891519073561,
                -0.05703411386503734,
                -0.06191644341165136,
                -0.27390657425166554,
                0.02882780066378842,
                -0.1484567347653602,
                -0.15674739368274576,
                -0.1591628708718589,
                0.9367662197283498,
                -0.45408316060973036,
                0.0028058049191802604,
                -0.08629759524015118,
                0.05437444552328683,
                -0.09143492299116912,
                0.02755767822809013,
                0.11109732704735797,
                -0.2482234961760737,
                -0.08917210859169092,
                -0.0816123965719044,
                -0.033965510229529546,
                0.11945116959999998,
                -0.02570923919529951
            ],
            [
                0.09999273422587912,
                0.20207775038875977,
                -0.05831661228600604,
                0.0341879197709468,
                -0.10811715590841126,
                -0.015709531957499783,
                -0.153645890560086,
                -0.17654923410836618,
                -0.006342368032632084,
                0.07798568725170352,
                -0.15602026509991754,
                0.01895414340735675,
                -0.020023829677069307,
                -0.08266065400821794,
                -0.043337580982341264,
                -0.02907801274028586,
                0.017876459726504014,
                -0.1452834747783189,
                -0.07929270041371808,
                -0.09635873419537783,
                -0.06271403328634845,
                -0.12499863903624958,
                0.07251167794917332,
                0.16192527737528634,
                0.1757060345939033,
                -0.016308108831578634,
                -0.09704027011158192,
                0.06474941522519587,
                -0.0033782762278846386,
                -0.051640974750993614,
                0.04473745810585923,
                -0.42561341253425666,
                0.019434154482255463,
                -0.07615653446912822,
                -0.06062802485527544,
                0.017054666657147038,
                0.07195088204026515,
                0.0778405830279286,
                -0.034473294005024344,
                0.030924247758391626,
                -0.014878345705337116,
                -0.025526816575168282,
                -0.07327963634725183,
                -0.18540887217694937,
                -0.08672647868812947,
                0.12561343512865095,
                -0.05764959424796871,
                -0.17259015598194358,
                -0.07044993172544159,
                -0.014457015209252957,
                0.1271694719350525,
                -0.08389434720571694,
                -0.1320659593643604,
                -0.20522652607689984,
                0.5110480752132134,
                -0.25859851000727924,
                0.08087829858805694,
                0.10237424060617416,
                -0.045209211549183795,
                0.06948485203392857,
                -0.07629537317849337,
                -0.06097362618684479,
                -0.20152939547627477,
                0.8495285631392185,
                -0.26078300083125483,
                0.05499371915552341,
                0.11160172693688268,
                0.08128553580550968,
                -0.22692290073409305,
                -0.03381038487639854,
                0.0030717099094909814,
                -0.06585883524112943,
                -0.16565535264309814,
                -0.13593039573111684,
                0.10632398733799828,
                0.3565982871611793,
                -0.03679517232192477,
                0.024678558282541646
            ],
            [
                0.13546858590262645,
                0.058586763426325995,
                0.0558672252610078,
                0.14388931768066307,
                -0.0970526822503361,
                0.08483052650597095,
                0.2779433239838852,
                -0.00937263144491517,
                0.05156384092327884,
                0.11809705307751443,
                0.22368796374308675,
                0.04844449264155963,
                0.2999652015800113,
                0.2051496688287093,
                0.35633579583104175,
                0.28816888983173383,
                0.17982364874636989,
                0.19777417459240623,
                0.19541739010409795,
                0.19455114452036057,
                0.31027783863125247,
                0.104592886744864,
                0.060921303883639956,
                -0.03705761077862834,
                0.11402662776975361,
                0.18626092109162182,
                0.12686560581152925,
                0.09839773600020926,
                0.14613594720839707,
                0.009178533665863521,
                0.052243313990147325,
                0.13232010195221738,
                0.10322551393419765,
                0.12814517889704832,
                -0.004310248149301896,
                0.14164808321482414,
                0.018142799188633763,
                0.1063976353522358,
                0.08007444533731262,
                -0.15441116685965167,
                0.0374296696928058,
                0.030493665100136798,
                0.09761183080509485,
                0.06060373579209332,
                0.15785496555943507,
                0.06481550305636986,
                0.08168317923496615,
                0.06427227604936527,
                0.0170062451407941,
                0.061156702001903505,
                -0.02852600698178866,
                0.24079893158342464,
                0.1918507011934229,
                0.27166849094572476,
                0.2300373535325776,
                0.1851906850294166,
                0.1250627282610675,
                0.28850570569120737,
                0.12048524915177705,
                0.1898953163081487,
                -0.09204777802700737,
                0.14900068986118206,
                0.05494981106369485,
                0.10499577758188748,
                1.0187345433274169,
                0.09571328511217607,
                -0.004518179966481161,
                -0.19172572456798667,
                -0.013060897097197747,
                -0.28601962666512093,
                -0.3376119850974791,
                0.09216514688934456,
                0.06692034091608548,
                0.056374699062463576,
                -0.11700776282892017,
                0.0855410724102863,
                -0.17201265840888375,
                0.2597616366398363
            ],
            [
                0.12257389301088743,
                -0.24781325565111187,
                -0.4257917367435667,
                -0.1374250691700144,
                0.1585562912744835,
                0.13330825727926515,
                -0.011861632008864273,
                0.04880090489042025,
                0.16669932891945718,
                -0.04863091873493554,
                0.037861616313945905,
                0.08520806162673708,
                -0.04205310345693066,
                -0.04344463277581643,
                -0.15891221534744782,
                -0.012592325051798763,
                0.09896255083178843,
                -0.03684930743183418,
                -0.13416295730556202,
                -0.1431923710217167,
                -0.02345060417815996,
                -0.14387982662601112,
                0.050613358817795835,
                -0.1642240608745301,
                -0.21650861702198643,
                0.010204506101819714,
                -0.14030289032464682,
                -0.04909004944027328,
                0.007260018744026257,
                0.12871163955273243,
                0.274701560538435,
                -0.10797709887641012,
                -0.2134426711354626,
                0.09967119895335838,
                0.03569930001161344,
                -0.025138409299874445,
                -0.006042255356506552,
                0.018522915023981852,
                0.03238544764750069,
                -0.07551526711471743,
                0.04432981323438772,
                0.005660427907562216,
                -0.25343270506059934,
                -0.28387747480297937,
                -0.006368962933976724,
                -0.20497850888390795,
                0.049979320292289034,
                -0.038096081099264836,
                -0.10022675666883174,
                -0.1813565862249196,
                0.04631798205540484,
                -0.07415472313908227,
                -0.1219829627194407,
                0.056708867633361415,
                -0.14421053491115743,
                0.4243413209629812,
                -0.007414287569195287,
                -0.23571374118863755,
                0.14398987396823026,
                0.30306930926084125,
                0.028364592087442332,
                -0.375647889806068,
                -0.08014439034960255,
                -0.07279693396924482,
                -0.4173276031638844,
                0.07462000890614462,
                -0.23068790153696234,
                -0.02844431313033057,
                0.05790603403740098,
                -0.009700415450910209,
                -0.11582283800823984,
                -0.016887854260319756,
                0.18198898205798414,
                -0.04187568173391651,
                0.10222612302593082,
                -0.059592932470469935,
                -0.36289253893371426,
                -0.3936001202348377
            ],
            [
                0.1810192715659997,
                0.17533734103671555,
                -0.007749041345122731,
                0.08876033570598062,
                0.08392279977472443,
                0.0585192092858733,
                0.36258679775418257,
                0.43601929978361476,
                -0.0463770754045789,
                -0.16713130663852355,
                0.2172479686172736,
                0.04116989114609637,
                0.16436859822025893,
                -0.11664003391485651,
                0.19859439505497062,
                -0.25263501939819827,
                0.19360726252915614,
                0.11047071278993878,
                0.19761749189621444,
                0.06012191851695577,
                -0.08289274668613726,
                0.12187573245490119,
                0.08569368029105745,
                -0.05611089991715948,
                0.20689383784019122,
                0.06565842758447511,
                0.07397858125278853,
                -0.26985199456582765,
                -0.04178436770052059,
                0.11847497332741845,
                -0.007744106044758857,
                -0.03117586049979144,
                0.1380202812107308,
                0.10950274961909637,
                -0.08073514588172619,
                -0.20917002538561005,
                -0.0012792942193093847,
                0.018353100269831446,
                0.04015980138307418,
                0.11357208634778601,
                -0.13143729801007067,
                -0.06627354763704642,
                -0.19220573335131402,
                -0.20401775982415324,
                -0.13883547557648362,
                -0.09417353716900535,
                -0.05031465032938395,
                0.09662510664210025,
                -0.16205985154087293,
                0.05905754095293896,
                -0.121734252355123,
                -0.011628848108382283,
                -0.06885994497726675,
                -0.3027821431960278,
                -0.3808759045382231,
                -0.2864000027974307,
                0.2447931756807903,
                -0.05668496816602538,
                0.2152741779883935,
                0.2008192556942476,
                -0.018216121646155818,
                0.10580681919517951,
                -0.12329770585132119,
                -0.10402903428049959,
                -0.39493886034552117,
                -0.20139561724677849,
                -0.0952088208502035,
                -0.32017589261415275,
                0.22004291376325066,
                -0.14866906043942715,
                0.13579848724823787,
                -0.22001090935711842,
                0.07145571265778025,
                0.20143089913990722,
                0.0734327919240882,
                0.12531052943985616,
                0.3063799290539953,
                -0.016455823602576886
            ],
            [
                -0.157011170739361,
                -0.04919408773394602,
                -0.03855938422552153,
                -0.1918986863690489,
                -0.2897143036785915,
                0.03290340952785066,
                -0.2448370718537723,
                0.08146221271890185,
                -0.2241522741277506,
                -0.11361343613797505,
                0.014840293854512555,
                0.03390697500557929,
                0.04677399663611635,
                -0.24186162295359587,
                -0.3246341837607191,
                0.08193224295934996,
                0.2010305518581917,
                -0.21673523151723412,
                0.034471556222104814,
                0.025184920068838657,
                0.06538810223453213,
                0.03354424346099385,
                -0.15375630134658386,
                -0.011357466023236628,
                -0.1423751261831605,
                -0.4411788760966548,
                -0.19655728027512054,
                -0.024211545766947336,
                -0.02444230514330459,
                0.04765132509120908,
                0.07729874511710612,
                0.06991415120138592,
                0.19775709106973974,
                -0.21443068695133025,
                -0.12971827998148144,
                0.22336954900576877,
                0.32276330785999563,
                0.05582504198495094,
                0.0401830750205457,
                -0.09837617805899312,
                -0.024095018942542686,
                -0.06279989847522856,
                -0.08763658149431726,
                -0.0396382076629477,
                -0.332920192518092,
                -0.08068507889491582,
                0.02110000635574772,
                -0.04941254481195743,
                0.15644905174880439,
                0.24306957506355384,
                0.2775729407013546,
                0.19447157399190448,
                -0.010039475548605752,
                -0.2497381868237699,
                -0.12808396983866108,
                0.05599785407642258,
                0.12240098022041737,
                0.31008292304205776,
                0.1099971381550525,
                0.14369359172741838,
                0.18687241555191667,
                0.06311178298053575,
                -0.0916156622841718,
                -0.018322932145249823,
                0.2205504289198448,
                -0.023804787372343966,
                0.025304859309899088,
                -0.351721035197485,
                -0.03322483999974218,
                0.08704573401876227,
                0.10443122601721279,
                -0.004530969325405571,
                0.12354721386199297,
                0.07017615839113768,
                -0.17374063154688357,
                -0.11219974530549806,
                -0.1444512081333459,
                -0.07291216970987163
            ],
            [
                -0.02485377178117468,
                0.0395272003903716,
                0.007722380012213053,
                0.20474823049352206,
                0.3240049704537688,
                0.14538384092732445,
                0.34824017890588194,
                0.0004108864630291581,
                0.12705964877385453,
                0.08205282094078774,
                -0.10883971120543981,
                0.1791805116784914,
                0.012518578069127421,
                0.2537509428839208,
                0.151508795865364,
                0.606219258509778,
                0.10918174436066362,
                0.04536068566178091,
                0.1495197816568966,
                0.06775570188118367,
                0.18768668572439867,
                0.22204335416153206,
                0.14041032804321443,
                0.22183139907074778,
                0.03447704466240947,
                0.05499920009291954,
                -0.18025882939550927,
                0.1878682806463947,
                0.018002070406688213,
                -0.09945361671131704,
                0.187744717821562,
                0.06464824298048369,
                0.13058609055634737,
                0.14189989346262954,
                0.10678375689278799,
                -0.11439033725392936,
                0.11531464108860279,
                0.04589278870168761,
                -0.14545216238426797,
                0.019741881277207687,
                -0.07797016080145742,
                0.21017579531039235,
                0.12796840597936712,
                0.0538112942238335,
                0.07139017976264479,
                0.03895261847707459,
                -0.07141087332522172,
                0.08178079799543017,
                0.02109419666311579,
                0.01812849527754061,
                0.07173732495931572,
                0.08068635559781147,
                -0.023559999863794086,
                -0.10872465916729113,
                0.12754368760467646,
                -0.18486214107041485,
                -0.14841356858702479,
                0.02882482649286822,
                0.10898972087001171,
                0.009871621996705769,
                0.052884314640292605,
                0.1334959765827986,
                -0.18492997657658436,
                0.2078180812322423,
                -0.8998792645796383,
                0.050514395242101065,
                -0.01452720174684539,
                0.2404615720585185,
                -0.041084319197529306,
                -0.02719115532184853,
                0.055052099887111856,
                -0.3763971682711033,
                -0.1229730900277769,
                -0.16823990524407165,
                -0.18873956094432914,
                -0.11884128524523835,
                0.1423735547792136,
                0.15275880702675226
            ],
            [
                0.09628237014286362,
                0.030086965222773713,
                0.132084498113894,
                -0.06513872498259385,
                -0.2245338197787324,
                -0.21584796814075372,
                0.29161672842949626,
                0.12388436330465262,
                -0.007114679068874178,
                -0.010463021876143076,
                0.06796078656176023,
                0.0780520574912607,
                -0.15178415358042763,
                -0.049660387573874996,
                0.39534464090091787,
                0.2221472481229981,
                0.11793644674017137,
                0.11772362775308237,
                0.11268067563564176,
                0.26906645295908843,
                -0.022924778174670698,
                -0.11529972843743604,
                -0.22015168917034103,
                -0.07412918652693953,
                0.07423679090431964,
                0.013486732931970493,
                0.21270070061228244,
                0.15254522873696508,
                0.10673799728494737,
                -0.17133375830461986,
                -0.14881621938704176,
                -0.17067302338626786,
                0.1477276334250871,
                0.17104313340954216,
                0.15918538750816263,
                0.12704785378260786,
                0.22425309027796564,
                0.061038941301580246,
                -0.11174749667684977,
                -0.12191700725088093,
                0.08870162084000618,
                -0.033755036482315585,
                0.2418399392367079,
                0.09395847487558405,
                0.0733889982826769,
                -0.08858461494309691,
                -0.13818902086878598,
                -0.20391803519776172,
                0.1328172845800706,
                0.2447325312888251,
                0.1689685541475038,
                0.16370362262054278,
                -0.03242692943026005,
                0.0498104290787012,
                0.13613231461184597,
                0.01800958931078283,
                0.06660102856809672,
                0.3747008124508535,
                0.021036867758614054,
                0.19641658063182674,
                0.04959364250072162,
                -0.1424379506296697,
                -0.05723839891074012,
                -0.036006558546474124,
                -0.3566812964400707,
                0.14068725385819447,
                -0.2889813665408165,
                -0.06204151482071208,
                -0.269624670203383,
                -0.03510934863476082,
                -0.16904616665080052,
                -0.19881803673415643,
                -0.04389422135950965,
                0.17293999300283636,
                0.15789919499548657,
                -0.05620441743645261,
                0.017842180627782353,
                -0.14516393057658322
            ],
            [
                0.06758967571327544,
                0.15369432828192556,
                0.23265984192616745,
                -0.007848095791498299,
                0.03545175843310201,
                -0.05806422346189498,
                -0.1468556486558784,
                -0.041774530910859295,
                -0.05939419719562636,
                -0.0637434780486681,
                -0.1517979983637512,
                -0.09366163685123514,
                -0.08147057085070879,
                -0.024730011760123932,
                -0.46301736391695425,
                -0.23014974039407343,
                -0.22381310428417933,
                -0.13457398590979894,
                0.06296594329981399,
                -0.12304723171975475,
                -0.20191978597741375,
                -0.15127305643049777,
                -0.20512927598570718,
                -0.3078205665552569,
                -0.03436370756152315,
                -0.07153957727753633,
                -0.06006191010253393,
                0.1275050599960059,
                -0.07921476865702586,
                -0.12988906619009702,
                -0.24001436581101399,
                -0.31279519511127624,
                0.04045518472993277,
                -0.2540090427819594,
                -0.1689662980844,
                -0.14726226941810988,
                -0.14947688381100876,
                -0.10586451389119506,
                -0.033507087938656206,
                0.14109548108865239,
                0.1771037947746663,
                -0.07678665826620878,
                -0.0766362719723927,
                -0.18499262224500623,
                -0.23036145548783063,
                -0.15619654248841458,
                0.004287351057505386,
                -0.09989772845235112,
                0.16307510521481847,
                0.31344212003355354,
                0.10024307712346371,
                -0.005379485804481267,
                -0.031160200816022554,
                -0.10305275450726947,
                -0.08481341582554597,
                -0.1858445251594995,
                -0.2584348722844581,
                -0.16261048873846043,
                -0.04422499429553338,
                -0.2040006326844921,
                0.14630421710404923,
                -0.09789957980298572,
                0.05737866206915641,
                -0.2816773839668523,
                0.06694027094956037,
                -0.0030514721216718457,
                -0.04064067713146149,
                -0.05503110356607075,
                0.013260122099973671,
                0.38345367806093966,
                0.05356092667367116,
                -0.0012977583993231691,
                0.20673631631071615,
                0.05540450832864928,
                -0.16626121353199913,
                0.03843800660621054,
                -0.124753601972334,
                -0.1341289808085387
            ],
            [
                0.0988448152647524,
                0.25231232925056307,
                0.3228729955823073,
                0.11285052530007005,
                0.09503197106750788,
                0.14302577202562597,
                -0.14553899339004817,
                0.026980674022301306,
                0.08458824190334743,
                -0.1679571646733954,
                -0.0038817731921676093,
                -0.1372596262963721,
                -0.12410117379502,
                0.3145213640171542,
                0.14935707681071553,
                -0.2072738958828004,
                -0.16375561417839782,
                -0.19846203036942534,
                -0.10087834671342633,
                -0.15742926319734182,
                0.14728332011895368,
                -0.013650137409925635,
                0.017679402164490484,
                -0.15494535850772825,
                -0.02095664596185278,
                0.0013601442438077548,
                0.1027091904845626,
                -0.07430095416071389,
                -0.17826743892107352,
                0.0046398023949204585,
                0.30006088492916694,
                -0.1325206683258721,
                0.0339795929009009,
                0.0970595299506514,
                0.10246846140530173,
                0.027402503832851102,
                -0.07442286886487214,
                -0.12362940011953437,
                -0.006540810594242829,
                -0.23507663642966709,
                0.18084757625674558,
                -0.12774578495898872,
                -0.016896035478374195,
                -0.09755621721146983,
                -0.19178595213600547,
                0.1733319913406723,
                0.03608887187313927,
                -0.12059851714517997,
                -0.046765851842966055,
                0.07132055498777062,
                -0.0909652664305492,
                0.08723333287055791,
                -0.04359046192484826,
                0.053371268568146585,
                0.06019750981697982,
                0.22987988642912346,
                0.03490079880953092,
                0.06197892340382782,
                -0.0190965810016468,
                -0.13000010931779513,
                -0.08723663094011198,
                -0.07852506962351113,
                0.18654454277321883,
                -0.3601316035737868,
                0.06267751885708357,
                0.27577471701668066,
                0.0926589183196046,
                -0.08326626918857062,
                0.056877948491895,
                0.054598109221492774,
                0.13054615124177202,
                -0.1737495762563367,
                -0.08870819648916956,
                -0.2076454687382732,
                0.062390929797868644,
                0.08793329695716676,
                0.0741247907319637,
                -0.28397730020112305
            ],
            [
                -0.030682535807675916,
                -0.2210594848856477,
                -0.05730587029860004,
                -0.12285196378737401,
                -0.12371317865122725,
                0.10490516473934439,
                -0.02268467659912595,
                0.10751103623629128,
                -0.24313200400890678,
                -0.022006606902898768,
                -0.20064603401158898,
                -0.1210265091468438,
                0.08670302578059039,
                0.06255097751656384,
                -0.2015433009816307,
                -0.09900997924306702,
                0.011422957858116289,
                0.17451760279561596,
                -0.03631992525675892,
                -0.2538080766151952,
                -0.16788051662064374,
                0.10984349577911141,
                -0.15589619546357833,
                -0.038775636744822685,
                -0.01692974560234377,
                -0.16203424208298225,
                0.20686677724748298,
                0.009082780264817836,
                -0.21854590284318476,
                -0.1117651932147387,
                -0.2924553722233593,
                -0.10294058857968534,
                0.08025675582755563,
                0.1808676352656069,
                -0.09266700516523407,
                -0.12895530375931086,
                -0.23165709578035965,
                -0.20694320195256893,
                -0.12815153084643607,
                -0.21510011409350732,
                -0.1205832846692738,
                0.0759714970222299,
                -0.0070629995795899875,
                -0.08709816637161154,
                -0.05533192643058666,
                -0.09192351078931389,
                0.034011714329382596,
                -0.046585163642525795,
                -0.18723172488937637,
                -0.11309666400255473,
                0.06890883554297181,
                0.04429671967338549,
                0.16049622715907183,
                -0.001249324818262791,
                0.17631842445283094,
                0.008547030265914324,
                0.015920439027026046,
                -0.28914851521055124,
                0.1747182884852016,
                0.05906716559190441,
                0.3382481031153805,
                0.08593941582648877,
                0.2709508421517174,
                -0.1814867837809709,
                -0.005182880322607615,
                -0.006116099062076585,
                -0.005674928056090743,
                0.04970644137023328,
                -0.24491210894539842,
                0.2294722867241794,
                0.1753515883009597,
                -0.07586057438615454,
                0.1583643318636432,
                0.2131879572322088,
                0.06176682259526475,
                0.14846310877909794,
                0.009573021905645114,
                -0.14929186229575747
            ],
            [
                -0.15112595488986286,
                0.02635896619342227,
                -0.12268331455120854,
                -0.13787600649736842,
                -0.0627934123626955,
                -0.3045392519414984,
                -0.1512335074706177,
                -0.10197676929322289,
                -0.19589448635659415,
                0.23437475395888027,
                -0.18595374945597304,
                -0.4533999599120716,
                -0.20251609125044884,
                -0.18086492549538757,
                0.03717361742619001,
                -0.22025396544062148,
                -0.07750863167164938,
                -0.009923825163009393,
                0.005946026247873454,
                0.01668663072272805,
                0.3327697580213403,
                -0.014056512874727945,
                -0.07704951376598766,
                0.008088965126028982,
                -0.00205954843740132,
                -0.029515263942565498,
                0.03106340151125316,
                -0.03042273279150373,
                0.02231407700516165,
                0.0905048894673283,
                0.19963331782245974,
                0.11267512020343909,
                0.12488114209877187,
                -0.06757751909524519,
                -0.001595820592690916,
                0.03521560972184353,
                -0.12526740781133128,
                -0.0715352099620895,
                0.30470484483332444,
                0.005841516961190929,
                0.06828772260833361,
                -0.12545244893605453,
                0.20014486103953882,
                -0.08917606353416535,
                0.42769388346492926,
                0.17977048362864634,
                0.06730806480466815,
                -0.09018572582699907,
                0.054491108989615906,
                -0.0059414816314354284,
                0.03125139779472427,
                0.36326254331593844,
                -0.15910472649563426,
                0.2503572623493961,
                0.3220598641635551,
                0.22233758814025423,
                0.3868789573737442,
                0.2908183056658358,
                0.13452758746037807,
                0.033478651943907374,
                0.2052164560411408,
                0.16476489542673123,
                -0.04413411768855668,
                0.17993965047303848,
                0.4802090857055656,
                -0.17550793954918606,
                0.08203000780772492,
                0.017882039924300625,
                0.20875649505397093,
                -0.12772198847826607,
                -0.21868083467712623,
                -0.22064917708311416,
                -0.055278487390584184,
                -0.052734409231441584,
                0.04569281691871022,
                0.2378386753233739,
                -0.1482039108840899,
                -0.34499656095457143
            ],
            [
                -0.03171324482945074,
                -0.2796873108923515,
                -0.006138270142966949,
                -0.04055210719136837,
                -0.08629563317138893,
                -0.557113959118729,
                0.5669653633365362,
                -0.023058757907970927,
                0.03201268813347088,
                -0.06384726592984366,
                -0.0669554134187893,
                0.025459063002730598,
                0.03983811948336527,
                0.14777246230002533,
                0.03101452394848824,
                0.0017542413778687488,
                -0.40555629492010614,
                -0.01011927163512449,
                0.10320704685416648,
                -0.21406605870903592,
                -0.09389954238307487,
                0.11294900004785702,
                0.24891204592671864,
                0.055281928885010545,
                -0.1947891665185046,
                -0.10543432099993703,
                0.02781528818204406,
                -0.03152591563243801,
                -0.11255852818708545,
                0.1339277369660012,
                -0.030782278276459112,
                -0.01650943704103323,
                -0.16973352823136495,
                0.09844364601887687,
                0.16495589945091135,
                0.11394864150331381,
                -0.08781024161302581,
                0.021539825990225355,
                -0.047480143697190086,
                -0.085391289355521,
                0.43657036945267325,
                0.15936096645664272,
                0.003044298395168996,
                0.011829918931137792,
                -0.14820009361432035,
                -0.16734367034720432,
                -0.08240484616670128,
                0.0697897261411914,
                0.10763646672942946,
                0.038222981104136584,
                -0.06963120209034329,
                -0.07182577975438019,
                -0.014134377132091454,
                -0.2048453556628461,
                -0.09192815761433308,
                0.04962628121235403,
                -0.14380401908824567,
                -0.04279518888170268,
                -0.16699033100506416,
                -0.19834264342204214,
                0.1348211032300971,
                0.05045630105156241,
                0.007184846239420643,
                0.050383861194492945,
                -0.0025685127203191665,
                0.11285483862416239,
                -0.1037681511447535,
                -0.1926220222968925,
                -0.02762393486494134,
                0.037157017814748255,
                0.0810511792961501,
                -0.17487542457108812,
                0.0006108948489889328,
                0.08754328896908928,
                0.2008109503204742,
                -0.2494684566475928,
                -0.05730581198781345,
                0.10635999614163463
            ],
            [
                -0.29294319493978466,
                -0.12391381786132719,
                -0.02132777087184279,
                -0.17921440986092232,
                -0.05238203673136083,
                -0.13696024107233465,
                0.049282214844011414,
                0.5028918117548844,
                -0.3936603090602839,
                -0.0692101320848425,
                0.013377096901152541,
                -0.2637301618127477,
                -0.09436778721264197,
                -0.09156664697087294,
                0.039120523383490785,
                0.18295571638777475,
                0.33042542141134856,
                0.010363344478083918,
                -0.08796841172032138,
                0.002764017932849937,
                0.1393184564853469,
                -0.016174395743908457,
                -0.02310205927736283,
                -0.026179452656693344,
                -0.04026626521099923,
                -0.05743565198141777,
                -0.14558814471075626,
                -0.0874800366271806,
                -0.061039940176618776,
                -0.11555166593616668,
                -0.06360218870385585,
                0.15431780175162849,
                -0.08999396365436818,
                0.09026994446115226,
                0.04746419725079592,
                -0.04193938244402413,
                -0.07201948902991438,
                -0.029019647406433032,
                -0.08946879926510373,
                0.03573785410425877,
                -0.012338552988395462,
                -0.00839345708353726,
                0.10920428972405112,
                -0.0738886945010609,
                -0.20462539939570734,
                -0.0005010454614123106,
                0.013421830222278053,
                -0.3171889664259954,
                0.15863243975932767,
                -0.011905903950103781,
                -0.1147911577658496,
                0.1621163838822288,
                0.006019742840822106,
                0.0006492440147394426,
                -0.014566559524500332,
                0.1449391636811916,
                -0.1765320519891756,
                0.10890083883158155,
                -0.15792514279706024,
                -0.025500778996054647,
                -0.009419010921020016,
                -0.15587579017003578,
                0.059689489973803724,
                0.3214969681002331,
                0.3313091488796374,
                0.09131792118565973,
                0.10135388025827848,
                0.2298724637729575,
                0.08199642785297542,
                -0.03945458476147388,
                -0.06979505539867988,
                0.02287679641722029,
                0.0060546436284902435,
                0.11479834050410871,
                0.17169803397904054,
                -0.2705419068061902,
                -0.014868671554661117,
                -0.18607000130968834
            ],
            [
                0.1227299481818608,
                0.15346065441283102,
                0.014931452906936466,
                0.05711605687994055,
                0.06948220247548771,
                0.1435147290843761,
                -0.016362173339207982,
                -0.17650472269659873,
                -0.1653131000431207,
                -0.10559005289955643,
                -0.18012093678695576,
                -0.12942910829058768,
                -0.18079767413311862,
                -0.22075399490585504,
                0.12418984333838812,
                0.1461495814001873,
                0.06761964418289469,
                -0.1997555582788532,
                0.05970957499484223,
                0.02235906868921294,
                -0.15458943487504526,
                -0.3049361613135625,
                -0.1171536337566787,
                0.04288839532195429,
                -0.01482565127428986,
                0.013125999621814256,
                0.07916399872092496,
                -0.0421093713161472,
                0.010038352780498023,
                0.03754287819626537,
                -0.33635031744043087,
                -0.0023292519365604686,
                -0.23700206203940719,
                -0.0052147824117055545,
                -0.1317324184662794,
                -0.06081156584223997,
                0.005644184658348181,
                0.05717046316858169,
                -0.1917185798364531,
                0.10999949547312346,
                -0.10684817679202568,
                -0.1760570212944103,
                0.1479861471427961,
                -0.06810686672015262,
                -0.1492345547123826,
                -0.2329101360445267,
                -0.10244110294076603,
                0.23522411999077492,
                -0.15232508876801915,
                0.0011222389226724487,
                -0.0455661938057589,
                0.061275658101737435,
                -0.01168878137018864,
                -0.010632258120524964,
                -0.11760918128427017,
                0.4153933721807635,
                0.3282681487167102,
                0.16667814381618418,
                0.005218991653755701,
                0.06113608044792073,
                -0.19543995459233166,
                -0.0871968919664502,
                -0.11691068945945902,
                -0.13645821186024712,
                -0.29248730035036047,
