{
    "nb_inputs": 78,
    "nb_layers": 6,
    "learning_rate": 9.5e-05,
    "params": {
        "W1": [
            [
                -0.22419336663057046,
                -0.08352284863388273,
                -0.026815153389570013,
                0.05121786627183401,
                0.17052906443357446,
                0.35468703007646524,
                -0.11935090279026797,
                -0.032987391437215796,
                -0.0012090868366973035,
                -0.052449170659897106,
                -0.023748396770367705,
                -0.06516500342367357,
                0.11522929815589687,
                0.03269775902782764,
                0.607807372241569,
                -0.4365895728466055,
                0.010555644243094324,
                -0.013909229891631703,
                -0.26272876862642963,
                -0.09208161040602732,
                -0.4307517728082847,
                0.06507892805480911,
                0.6739780213512885,
                -0.15679893763636235,
                -0.12782203322791302,
                0.07575061199864706,
                -0.017976906455578767,
                -0.05947659751910713,
                0.044551258499636606,
                -0.127212967083353,
                0.12299128675522554,
                -0.0735960496225273,
                -0.06818497845899038,
                0.042967813589018855,
                -0.2144080958966851,
                0.05406610522697038,
                0.12460929551369637,
                -0.09700019940498028,
                0.054094498865086695,
                0.04272901841858882,
                0.03676752271983812,
                0.16616085061367014,
                -0.03096123548901631,
                -0.08961266866824645,
                0.010099523127028913,
                0.23140051931798047,
                -0.04829122821566813,
                0.0077986602438879825,
                -0.13111031654295804,
                -0.0667192951657638,
                -0.0374668785395414,
                -0.03770510129362746,
                -0.2601763232172561,
                -0.07884664102702679,
                -0.14546440170585145,
                -0.13077033066021101,
                -0.10288512738261674,
                0.11321253056911516,
                -0.18941878423019262,
                0.0048566349265031965,
                -0.17330194996596202,
                0.08464987176353134,
                -0.07391790728023048,
                0.024172429393416968,
                -0.4514669671475691,
                -0.11477554890661877,
                -0.03881414238218413,
                -0.20697516431942103,
                -0.11515109368816233,
                -0.3151275380863447,
                -0.19423252544956338,
                0.021981463890358245,
                0.04603662772893605,
                0.15404808734722306,
                0.27301600483430605,
                -0.07038611451768777,
                0.05717430511608523,
                0.10078164979696207
            ],
            [
                -0.12867451422998175,
                -0.12127418211300199,
                0.014300214415475842,
                -0.3941021571151353,
                -0.4406209880476812,
                -0.09220453893187257,
                -0.18657181702388106,
                -0.6782059145816347,
                -0.05258075165224511,
                -0.02682980426141131,
                -0.10035660206543105,
                -0.20249980418802185,
                -1.76981264355122,
                0.06668142780286668,
                0.05706329391900656,
                -0.06933329512863724,
                -0.05522035484314208,
                0.02339116654562252,
                0.020503828090507895,
                0.04843926423471782,
                -0.028736972668449687,
                -0.16420347954016995,
                -0.0288623996751515,
                0.06444568792778574,
                0.06065291994422784,
                0.009093223085259396,
                -0.005819740994656593,
                0.005235967582552273,
                -0.08850558734052702,
                -0.07220570869122869,
                -0.004552003533685483,
                -0.06709893636098337,
                0.059466151602201395,
                -0.10253837556671405,
                -0.28352565091120574,
                -0.08439373901191122,
                -0.06645432448953591,
                0.015916618051997563,
                -0.0582461379601643,
                -0.12926639865861514,
                0.05241977642171747,
                -0.027986294352906976,
                -0.16963786524722063,
                -0.0929258356625604,
                -0.009296998297824715,
                -0.11155176200932547,
                -0.03144563085401878,
                -0.013785346339199426,
                -0.03468086296954974,
                -0.03965565570295071,
                -0.023393348541944387,
                -0.04020600705266334,
                0.011955630911724273,
                -0.021765579678928716,
                -0.006722441959155141,
                -0.06486917564791952,
                -0.09509589032350928,
                -0.010947947962253199,
                -0.06015189076357961,
                -0.09992441977016257,
                -0.07154962913987047,
                -0.006538491353379355,
                -0.11026732062479602,
                -0.04317745163960467,
                -0.2736004472440965,
                0.04668486398240081,
                0.1153662887067177,
                0.33004701416082705,
                0.04298968833937409,
                -0.13930880082780367,
                -0.2650162751941614,
                0.1622185429445409,
                -0.05436509629763505,
                0.1062568829180246,
                -0.23930760677242788,
                -0.16427175971194224,
                0.22729489267907324,
                -0.3430112916311395
            ],
            [
                -0.1793249767250765,
                -0.03665355166015275,
                0.07826453336222267,
                0.13390077968175237,
                0.13471129103991483,
                -0.07351600076666694,
                -0.04402846506897892,
                -0.3693260638629707,
                0.229622170632542,
                0.07439524825677873,
                -0.0634598586906617,
                -0.047709519858033164,
                0.011859913013667641,
                -0.06948312484725501,
                -0.14633079217189987,
                0.1276425280830108,
                0.10937124394278719,
                -0.2572303854397168,
                -0.09205394785877484,
                0.09241400378513058,
                0.15679734306313053,
                -0.14628395714515854,
                -0.27367159988517925,
                -0.05690887728758841,
                0.012089059055910076,
                -0.04304104147785388,
                0.06041699299998948,
                -0.15820717132144732,
                0.07273976743514707,
                -0.5729531328779874,
                -0.02396325679935803,
                -0.011269448372620844,
                -0.1770058000281407,
                -0.1671133165096787,
                0.08291569609779173,
                0.09718206906452145,
                -0.08252189988837792,
                -0.20430215941557933,
                0.060506332284425916,
                0.16973706872289568,
                -0.008883776925177342,
                -0.08334316282970272,
                -0.17553103284095917,
                0.005333049494739913,
                -0.0831029266555511,
                -0.008611334470911333,
                -0.16745929191050665,
                0.09910953780779937,
                0.01665949649628951,
                0.10868767988833682,
                -0.13834109928434726,
                -0.34512914988413435,
                -0.25988856467218013,
                -0.08443721140602164,
                -0.041422972996301016,
                -0.12622727982799772,
                -0.21425845250450873,
                -0.18237454890296467,
                -0.26632251666061996,
                0.113854186256701,
                0.15687885200047705,
                0.06525158923415338,
                -0.15533053343824724,
                0.13021168200149613,
                0.3810722834228916,
                -0.1697614291858491,
                -0.07550431374499532,
                0.06278997930683101,
                -0.25288536497368,
                0.26402976326321365,
                0.030630004362105372,
                0.29415770934712665,
                -0.17849811245362462,
                -0.09260877276375194,
                0.3167545103689939,
                0.16336175195911765,
                -0.26629222447360024,
                0.13588497415489273
            ],
            [
                0.09720542465095534,
                -0.07039922304283106,
                -0.10759129855587345,
                -0.085611778555986,
                -0.23103148482059224,
                -0.4137597882356592,
                -0.39361940860913547,
                -0.3348411137690708,
                0.07410703773402604,
                0.060238270945865466,
                -0.1489895098363039,
                0.14191388308164166,
                -0.14907184775368987,
                -0.32796275199630726,
                -0.12395188826173592,
                0.2400721910054257,
                -0.02517104423780878,
                -0.1165855909600065,
                -0.11639008299985974,
                0.05381059786830975,
                0.08624428189211907,
                -0.10612196045446866,
                0.15322991364295582,
                0.4029613335473783,
                0.013740032447030261,
                -0.0004408555539198123,
                0.09853008553087512,
                -0.10358168111892638,
                -0.23870199409341628,
                -0.16247331775950186,
                0.11275330506788186,
                0.19296902525937934,
                0.19059142387275393,
                0.10221373957328451,
                0.14290614236400995,
                -0.059904937395276164,
                -0.19238602229995097,
                -0.3198774187809751,
                -0.12167428116485947,
                -0.25161084788640303,
                -0.12619078803447478,
                -0.10270746996903185,
                0.17263705648593544,
                -0.08987489243757538,
                -0.16469859150421592,
                -0.09496764839727005,
                -0.09875285449860725,
                -0.21283007076443328,
                0.20397426659583653,
                0.1352785227481134,
                0.20513902046907131,
                0.16139756479015632,
                -0.1574147288207588,
                -0.062168000067103026,
                -0.4515504840653847,
                -0.3139121084281461,
                0.25633409413023733,
                0.11843044261626408,
                0.3073449787455317,
                0.08728167708439974,
                0.09812855418092893,
                -0.30296525130499363,
                -0.14295241579012594,
                -0.0631901076105747,
                -0.4690089344901203,
                0.007988820015054871,
                -0.06552741091726975,
                -0.10597805594226259,
                0.378181725451131,
                0.3770563265140934,
                0.1797730153290699,
                0.21296633969077833,
                0.018489874383243912,
                -0.06076325536370138,
                -0.009756207933801683,
                -0.025464402044739272,
                0.32387823047138387,
                -0.06967683510284264
            ],
            [
                0.10592311855630956,
                -0.12287339767243946,
                0.15133459955385986,
                -1.2027489785803949,
                -0.6062521646757054,
                0.21483636013378474,
                0.013638625351420424,
                0.01698850658696482,
                0.04573231731734168,
                0.01588693177090797,
                0.3538035091910295,
                0.05156125576851426,
                0.012118136861839624,
                0.10043321166063163,
                -0.09692439243326079,
                -0.10840848540423957,
                -0.010696797401815174,
                -0.02084076306084123,
                0.005983335509678757,
                0.2023258265335184,
                -0.012041451375909722,
                0.3602676530159918,
                0.19634276790812796,
                -0.07568347833569009,
                0.2199626017060898,
                0.14026335831281977,
                -0.24268258329691675,
                0.013439951404261867,
                0.07769425853483289,
                -0.010715112370452279,
                0.09632001460079878,
                0.04912964358521258,
                0.20101407589545148,
                0.20031769483074274,
                0.06266595847390369,
                0.025955413633463653,
                -0.040516533349910434,
                -0.24560163066241072,
                -0.09380408223668325,
                0.050152307869934264,
                -0.19864299574840402,
                0.05002570379398779,
                -0.014967144115916393,
                0.13678196844832294,
                0.08889962600666056,
                0.07167627046677236,
                0.04441922302395782,
                0.12219342484837635,
                -0.0573020234842358,
                0.0933491404086254,
                -0.045201368317997086,
                0.08660834458321057,
                0.04919555419226756,
                0.023264343531165244,
                -0.013598358730025427,
                0.14639875522722004,
                0.012508861928578186,
                0.0052329114670322955,
                -0.07379035788363655,
                -0.0837654171632378,
                -0.10222253432442165,
                0.03577537010218891,
                0.2920390189138474,
                0.05373731872213662,
                -0.3031242009633617,
                0.043606094451111625,
                0.38435859255250554,
                -0.013855427674433367,
                0.24855082540535844,
                -0.03523061882938093,
                0.19078624107149517,
                -0.11269782102026972,
                -0.1201719461705364,
                0.0765046003985106,
                0.10740732674857761,
                -0.1444400256900934,
                -0.0009232553779113189,
                0.3648899656579794
            ],
            [
                0.039793405409647174,
                0.031116727496301927,
                0.049834895535889163,
                -0.07218880925833057,
                0.02536322656787261,
                0.024770554533723847,
                0.07308330477577919,
                0.07093538073826473,
                0.007086515610141836,
                -0.03070166738273606,
                0.0062484965476657574,
                0.03185084427524621,
                0.06703600581687251,
                0.08352678057978334,
                0.05345932313012154,
                0.03492469029701623,
                0.12513018424716252,
                0.06298284170581343,
                0.02121538518449754,
                0.0748631669856201,
                0.0059927463972280276,
                0.08022186845823297,
                -0.04036277945365769,
                0.027403400670535424,
                0.0618399130885701,
                -0.14055714862652888,
                0.008289794510821147,
                0.15488640543432663,
                0.030784541331810293,
                0.06718359703363383,
                0.07484182475360508,
                0.054120087197101464,
                0.07956299585358026,
                0.0191723429246244,
                0.07678486802791312,
                0.13751564235071284,
                0.08583236290480421,
                0.09606367799929519,
                -0.1521957959592957,
                -0.06268182108805627,
                -0.07758980761884544,
                0.04570463583079075,
                0.039443077323018265,
                0.04219557535819028,
                0.11423386801624087,
                0.4458813320696286,
                -0.10625670162772166,
                0.08933709320731123,
                0.07651333787649685,
                0.09572277496860551,
                -0.03590962317442408,
                -0.26337019780274407,
                0.035014956706055866,
                0.02684251737943591,
                -0.0002173464820929393,
                0.4163843969673163,
                -0.0069424044556425195,
                0.2656083845473207,
                0.3491317590803935,
                0.17263856219444673,
                1.587110060489963,
                0.146701509644637,
                -0.044523167601547176,
                0.010519669999661696,
                0.6918534814881365,
                0.2837701107502864,
                -0.005124070498505565,
                0.2522860367628231,
                0.272461173602613,
                0.1614991886573214,
                -0.13821355517633244,
                -0.13154290527209797,
                -0.28046970344033834,
                0.3746598107343384,
                -0.10716863434496174,
                0.06085608028275086,
                0.06552389474115221,
                0.11253185241348754
            ],
            [
                0.17977484213047557,
                -0.007391084902119669,
                -0.0867796660624277,
                -0.4297845143048507,
                0.08120895045658694,
                -0.007345934790983791,
                -0.1638464968260185,
                -0.20298501583966883,
                0.16539742498849228,
                0.047046835129647364,
                -0.17772833501427016,
                -0.3517597709822388,
                -0.03319521205076257,
                0.02348277979313194,
                0.056676562830900765,
                -0.1172104533363215,
                0.07418222376319741,
                -0.036794076606733006,
                -0.13436854851905558,
                0.007921491264428053,
                -0.03698336402239541,
                0.05136391096427874,
                -0.27489246336896467,
                -0.09601864111707985,
                0.008894793271124793,
                -0.08849284370518892,
                -0.2766905344876411,
                -0.20237327504674593,
                0.07755511528240347,
                -0.0028355035808068905,
                0.048248802399612066,
                -0.057978187952866946,
                -0.0995775738468994,
                0.13342890361002133,
                -0.1210728692148886,
                -0.003063274058928225,
                0.03826878807881337,
                -0.39536893815117596,
                -0.007578104493893464,
                0.19605057280856972,
                0.1261429114358676,
                0.2166716241101303,
                0.35638996089733793,
                0.2104336999976637,
                -0.045679018473881505,
                -0.366093807619095,
                -0.6307818025058036,
                0.041276417195168266,
                0.14814991063376431,
                -0.3771192682655854,
                -0.3343127957213511,
                -0.08014103346203232,
                -0.13612702100100668,
                0.07618284910781685,
                -0.008744838745554406,
                0.05686844130481591,
                0.10837475283931589,
                0.0629727832245043,
                0.08637534713934783,
                -0.2043257808393186,
                -0.3458137579850707,
                0.11299285320278064,
                0.056548053301300395,
                -0.18883054937281693,
                -0.3304861358361752,
                0.440997702641685,
                -0.06042430916639704,
                0.5226940026368275,
                0.06875415930566138,
                -0.1794118418086883,
                0.006910324080138635,
                0.24104595614097496,
                0.27392303007124263,
                -0.13605914564820476,
                0.09573030379960318,
                0.04466016259514479,
                -0.06858513506883418,
                -0.2563092774385332
            ],
            [
                -0.02312188364786593,
                -0.04083768204336586,
                0.08054979150057026,
                -0.13315367457957322,
                -0.02369440472666114,
                -0.15847531996044928,
                -0.4750404737831606,
                -0.3061047591470526,
                -0.038626410846576927,
                0.2583261023029973,
                0.34998288430064783,
                0.13732562838020074,
                0.3225466556832097,
                0.11573907005932885,
                -0.11687991571374008,
                -0.040182176652011195,
                0.14625950549925715,
                -0.044866106023007106,
                0.11383649224596956,
                0.03898365402112497,
                0.008571650108312791,
                0.11053624082898054,
                -0.042892909016204066,
                0.041871920200297105,
                -0.12441948336617009,
                0.033814871677445124,
                -0.04581690943390583,
                0.02931596842217765,
                0.10011895005265763,
                -0.05537438822219414,
                -0.07536118886842037,
                0.11327177879794552,
                -0.015507934446026297,
                -0.13792815267082045,
                0.028450727966394997,
                -0.09632116931692013,
                0.20524529081315307,
                0.09305674421885046,
                0.0457674932550735,
                0.09349761096848028,
                -0.28732764493859164,
                -0.15617374773203987,
                0.014770329638363678,
                -0.1786183697649564,
                -0.18932910475101242,
                -0.09754926185361362,
                -0.04768639433146625,
                0.1172507703515293,
                0.01955209790422631,
                -0.018795668289637097,
                0.008698816067677268,
                0.07374060907407,
                0.23030838468457043,
                0.055679869377748346,
                0.3087131968351635,
                0.11794275175045175,
                -0.12825874666180204,
                -0.14490251782614386,
                -0.17897275959022949,
                -0.11033848126577814,
                -0.026079996860653473,
                -0.1702967258826105,
                -0.43961511245078455,
                -0.2947697339406395,
                0.010400060308872102,
                -0.13853942027228922,
                0.2280756116645859,
                0.008686581981304337,
                -0.05597090244055339,
                0.03507545162635544,
                -0.3181373565478479,
                0.0771300197403938,
                0.39524532282426356,
                0.14271058879514953,
                0.18166618243621563,
                -0.20337700339927633,
                0.1630960958022816,
                0.006246190752851975
            ],
            [
                0.1787419559464961,
                0.046575159906294766,
                -0.05695068502054747,
                -0.05421852736999115,
                -1.7039096273253063,
                -0.14283693665980746,
                -0.1780618171904893,
                0.5183590512217926,
                0.08048632722266005,
                -0.05063025210694993,
                0.03393474260817154,
                -0.14672155138677345,
                -0.11837085881086963,
                -0.1795404384249281,
                0.01319726602870507,
                0.048756996746360706,
                0.10363303648696043,
                0.022489291832336566,
                -0.0008429439632452074,
                -0.05941440894781685,
                -0.08973497815889533,
                0.021020905623206243,
                -0.18669228759165474,
                -0.18454968912973663,
                0.000758614712917519,
                -0.008622201939348085,
                -0.007181050847171536,
                -0.24480838688302642,
                -0.11746831935335948,
                0.13215986138361022,
                -0.2526282792337824,
                -0.10489857410430423,
                0.06428959212392134,
                -0.05897992774515009,
                -0.08430384279920027,
                -0.039991570447205464,
                -0.010051781843402533,
                0.00567397419668794,
                -0.10512422045034268,
                0.0017598263531566597,
                0.024662731822397123,
                0.08491392771077017,
                0.1087764139363542,
                0.12483617930356924,
                0.02288417571240742,
                0.23358243627087275,
                -0.2225447661132793,
                -0.18728281685225223,
                0.07625261448208845,
                -0.02862474301839963,
                -0.009582207358827102,
                0.029981019460785203,
                -0.08700734970922037,
                0.004215002271298526,
                -0.07376454874078003,
                -0.08436639918397723,
                0.1131493644304266,
                0.010994995269472,
                -0.041561817378489886,
                -0.04578488838057808,
                0.04838232121108522,
                -0.10729875993363162,
                -0.18766432192483593,
                -0.04801001630019019,
                -0.6598621629835525,
                0.24009215765517145,
                0.12941682773609367,
                0.1738246949881533,
                0.14030244113131654,
                -0.1552089678901649,
                0.30700534595757484,
                -0.02380513728046846,
                0.1522028155219224,
                0.03413736905933017,
                0.07413282982311416,
                -0.1239939763382592,
                -0.051026671594539205,
                0.06844122915348518
            ],
            [
                0.14456834892640968,
                0.09010974026479494,
                0.07745682973038982,
                0.019249369223027515,
                0.12448035357276406,
                -0.06627308805493332,
                -0.024807222181530787,
                0.10193393772418963,
                0.05621786317458467,
                -0.06866583609203729,
                -0.24352094764902618,
                -0.07743500342902611,
                0.09439900884559066,
                0.10322148900968368,
                0.16674459099940867,
                0.18447995293398756,
                0.008136509802310645,
                -0.06059747849985523,
                -0.07237081993738545,
                -0.14302660747777302,
                -0.18094553160889426,
                -0.08511624194562316,
                -0.23847225830426808,
                0.09762993290703785,
                0.03967883171807419,
                -0.06322663956844202,
                0.039849895086449726,
                -0.062002353781973,
                -0.13892671114286617,
                -0.040153438181304214,
                -0.05238761641103586,
                0.0213709206514111,
                0.05314583098182315,
                0.015140832688333066,
                0.0764834977700403,
                0.08957709891600349,
                0.1977488552291081,
                0.11452464803481768,
                -0.22107346979758685,
                -0.18361034380457514,
                -0.08421069035327199,
                -0.06812479981905291,
                0.17763971125570585,
                0.041544603920350476,
                0.14823964137268372,
                0.03431600254217997,
                -0.07116394519863675,
                -0.46229557034834784,
                -0.018983900438518227,
                0.07779387615874236,
                -0.030043521588815292,
                -0.08553762441555798,
                -0.0017721593539119273,
                0.15544359892219123,
                0.5014453736705926,
                -0.33450777015080396,
                -0.11936903313802165,
                0.1699243778202812,
                -0.06227504677308659,
                -0.0494608730990302,
                -0.22271823357040796,
                -0.2975889185794499,
                -0.5609200687059435,
                -0.40129469805223994,
                0.3833302939304074,
                -0.07592922935705529,
                -0.006167257430507629,
                -0.07245167097879553,
                -0.05017949381936487,
                0.23294036758809414,
                -0.2572038676219999,
                0.0777842995782414,
                -0.23659388791298352,
                0.01842067953243572,
                -0.0434011109089943,
                0.3571103029811955,
                -0.19368899735480583,
                0.09398691519534276
            ],
            [
                0.31005191624727846,
                0.20751917113466783,
                0.12367523474323619,
                -0.3415917453437356,
                -0.1586025431148816,
                0.06885504757736685,
                0.018864946030882714,
                -0.015707753787122677,
                -0.11834284994400406,
                -0.3220436534121633,
                0.03057234317666943,
                0.17740517107925657,
                0.07126444569878317,
                0.3951845688648392,
                0.13190659715586958,
                0.3795419383167475,
                0.017997634424915386,
                0.12757361415987944,
                0.056821084931028575,
                -0.05013286131131574,
                0.35867503088006414,
                0.016055864595384245,
                0.10453243367710496,
                0.08385452616387538,
                -0.17603402837452464,
                -0.01014272504006763,
                0.003437574483769118,
                0.17635701653069297,
                0.3295404320032524,
                -0.018993119987082623,
                -0.10081855964830867,
                0.00265985087168854,
                0.15667070169172675,
                0.1190179190531629,
                0.03535370990085497,
                -0.032506086905417265,
                0.18363060689428912,
                -0.2087777364093316,
                0.05655747736240202,
                0.0466078740599565,
                0.13519662777968558,
                0.14685014161892668,
                0.07436789132763058,
                -0.18874682949267418,
                -0.0468653159596997,
                0.06389242507379568,
                0.021011735561231162,
                0.03563129680844149,
                -0.11538810339429341,
                -0.05054688485047909,
                -0.055774526807286895,
                0.1400736671547788,
                -0.22082220347500503,
                0.5264468779298785,
                -0.002598262611802546,
                -0.17931680200509725,
                -0.10676133955967419,
                -0.4157828887314177,
                -0.10028983213105114,
                -0.09591057068323873,
                -0.05725926603858696,
                0.1496798027497346,
                -0.05814551207247909,
                -0.015087224301415427,
                0.04979906098152701,
                0.02399635255702304,
                -0.024898406254463854,
                0.10660798752375962,
                -0.18482428912884274,
                0.06899339294244212,
                -0.17422958005965206,
                0.02556212065012167,
                0.0740372336864072,
                -0.3313936355896925,
                -0.009426461187868858,
                0.1671452525765025,
                -0.10648391317909543,
                -0.36988057247360245
            ],
            [
                -0.18286781611733674,
                -0.3134377081082029,
                -0.08424477865027896,
                -0.23272850272754886,
                0.09928373997705876,
                -0.06784177557794879,
                -0.15201322385940158,
                -0.01597857064107933,
                0.05922955532080528,
                0.07382416132663137,
                -0.20885630714588016,
                0.05928388640134501,
                -0.11705389869823403,
                0.1239306271366785,
                0.023997500986686234,
                -0.044100074458100144,
                -0.08567054619633072,
                -0.0727592940446388,
                0.044587260879024385,
                -0.07254353191055776,
                0.042035958183977915,
                -0.05155101154038559,
                0.07159872892317,
                -0.06196626579730567,
                0.007412512427258011,
                0.01772168385668419,
                0.08971413829135601,
                -0.038518543729364176,
                0.06280723482475131,
                -0.14612632214728902,
                -0.020584227286032677,
                0.1539302472794527,
                -0.20359796558594923,
                -0.09243454664107824,
                -0.023801748310822143,
                -0.10178171444203554,
                0.21558115319036403,
                0.24406604066863183,
                0.09051149727716633,
                0.21453557104072332,
                -0.09136290097758573,
                -0.3588259390341924,
                -0.12172907001415678,
                0.12424314320477828,
                0.4816553901847866,
                -0.03683565772762938,
                0.12230108125150452,
                -0.38230919417166764,
                0.15819015255453717,
                0.1415517817225703,
                0.019742891612004314,
                0.2024495046459808,
                -0.3070865522871058,
                -0.2500497586504487,
                0.00096653518341209,
                -0.24289891876892666,
                -0.21413567989893417,
                -0.06315172579419229,
                -0.04121338049939367,
                -0.05405433701549309,
                -0.38917683460398705,
                -0.002702984301479126,
                0.49105048171706106,
                0.41537304970394084,
                0.8940386858106439,
                0.1738862427549603,
                0.14487646264069617,
                0.19763193375938853,
                0.016819830782416844,
                -0.11607547965544462,
                0.1949874463037826,
                -0.23062500325838964,
                -0.06823467824170684,
                0.13122014399122048,
                0.07525248626880947,
                -0.09448172208851767,
                -0.02354517427357956,
                -0.10561857447707013
            ],
            [
                -0.19975158141825686,
                -0.04632390980900436,
                -0.04585040440342718,
                0.15049293968480787,
                -0.0017425885394408396,
                0.19259778705244357,
                0.017934972682484937,
                0.12574614177483956,
                0.12761015996538053,
                0.09010557383393682,
                -0.07459180601915834,
                0.06718518899823742,
                -0.008293365130271102,
                0.08120252829162566,
                0.012427743580426089,
                0.04832713613585126,
                0.14142179759898338,
                0.09783940851489328,
                0.09770051048720209,
                -0.045111139240693696,
                -0.043071197130614414,
                -0.20156862750129076,
                0.007271536631722289,
                -0.10521364447019384,
                0.0326493446617929,
                -0.09510162322722154,
                0.1245183554601118,
                0.05397495517012322,
                0.02097920572124289,
                0.007923710318764812,
                -0.006553757388153256,
                0.04907295492829547,
                -0.012713137832955084,
                -0.030715123117664545,
                0.14057981819052115,
                0.036487084550868194,
                -0.007932192082804417,
                0.006332579674992068,
                0.06667132199721874,
                0.03687279334220864,
                -0.07460044570388792,
                0.08349253832423267,
                0.010046142343559756,
                -0.041396813662807,
                -0.2910722266293143,
                -0.07174362559887451,
                0.49238597585106186,
                0.08150270211961776,
                -0.148962257845782,
                -0.02557190151027511,
                -0.23096324101050955,
                -0.16175542029217396,
                0.0304437424790208,
                0.22151304539136676,
                0.3844274484843965,
                -0.4418922483775267,
                0.2642730457569733,
                0.5545387476842508,
                0.5873601043086293,
                -0.09468146919632993,
                0.019748478853157274,
                0.0669164564308688,
                0.15250346573035153,
                0.25005738107725334,
                1.0221689075732563,
                0.06255683853974214,
                0.043873215842719436,
                -0.054336311697958814,
                -0.015088996032638292,
                -0.18283507424478931,
                -0.04239111153022976,
                0.203617170517423,
                -0.2726400740553037,
                0.09861246239201292,
                -0.3314346646736151,
                0.008775221948128213,
                -0.05332526623177602,
                -0.08427887002115134
            ],
            [
                -0.06573128241473737,
                -0.04320625459254111,
                -0.024999223755167325,
                0.33398396965764127,
                0.27940069275655466,
                -0.042062733311824856,
                -0.048231463766246395,
                0.6941105225925224,
                0.30482603230340827,
                0.42709264910115713,
                -0.013181612472620464,
                0.05649052036020453,
                -0.21680568627912392,
                0.18040969147480113,
                0.22277707111104914,
                -0.2403132394791758,
                -0.005768712560329315,
                -0.10886551909910033,
                -0.02779396473151772,
                0.06689529380605541,
                0.4377432575398283,
                0.0883499077459106,
                -0.09720087161050628,
                0.005797689994116705,
                0.09510491808597377,
                -0.25491505529422903,
                -0.05230797543194361,
                0.09296813797783833,
                0.06821394750607385,
                0.04629253882774605,
                -0.0726577510729371,
                0.0670770900008712,
                0.04129344586961437,
                -0.11985972883878779,
                -0.041109587631890376,
                0.04749720348749016,
                -0.07089106937485541,
                0.03298685687012413,
                0.017455799205919005,
                0.019454703640008012,
                -0.20329390679146894,
                0.0034234660442382775,
                0.27940923403532825,
                0.17353230482318047,
                -0.03704103094290586,
                -0.14903708528766177,
                0.03473890624682142,
                0.11065405548639878,
                -0.16322575573779932,
                0.044410074407159265,
                0.10423002523161463,
                -0.018052110787725926,
                0.025536567365512797,
                -0.0755055249564251,
                0.07323805013620423,
                -0.27695911950169755,
                -0.17316924723047347,
                -0.05887735132667261,
                -0.12091882100403942,
                -0.2857430423393616,
                -0.13439868558679074,
                -0.05737219045638233,
                -0.05010312348267734,
                0.08163085531660032,
                -0.4139614766594097,
                0.2739048105692939,
                0.18848171838196498,
                -0.012681414117593597,
                0.26612409026965633,
                -0.025074038436368858,
                -0.06806310446392573,
                -0.06438393404876123,
                0.04149637247722951,
                -0.11713979035943085,
                -0.09568257366305263,
                0.03628210577400227,
                0.01990330410460633,
                0.02313959089893171
            ],
            [
                -0.021961073359644548,
                -0.04962220847031329,
                -0.002296934668041578,
                0.0072503730326901866,
                -0.008218747414441225,
                -0.011624289684117965,
                0.04782441332740177,
                -0.18658234210694868,
                -0.09844156261944273,
                0.0305821183080853,
                -0.14747403110778062,
                -0.0020738120176002754,
                -0.14078724088360375,
                -0.07046177860168112,
                0.11667562845281448,
                -0.09513005037734654,
                -0.15946167242907483,
                -0.17775807322579318,
                -0.13653061990638338,
                -0.08999883010274115,
                -0.05166145122973773,
                -0.0964785437149265,
                -0.09364580900591321,
                0.07540050758746021,
                -0.06949772575903121,
                -0.021619618518215956,
                -0.14694445121767608,
                -0.32746509651234845,
                -0.14620886427966134,
                -0.06317011607466229,
                -0.08328920585319005,
                0.06025789174983773,
                -0.09156791528787145,
                -0.1398149263882731,
                -0.15774193621721816,
                -0.12359567825124318,
                -0.0014054670997210171,
                -0.04148066740249675,
                -0.24558737626087845,
                0.02056013476783161,
                -0.19140749032789114,
                -0.129550360223343,
                0.0939292480503461,
                0.0422032165163244,
                -0.0048073388395015355,
                -0.0794182833799519,
                -0.14474419643024866,
                -0.1748927184340396,
                -0.14261492841314466,
                -0.035141202963633315,
                0.07954066292806582,
                0.07402217798329494,
                -0.04362675512907067,
                0.21495698744745442,
                -0.06818189416845771,
                -0.18549920299700837,
                0.13138963731912057,
                0.31856680277416005,
                0.09112348672845041,
                0.34644370685017095,
                0.4110398418699862,
                1.5583110984817494,
                -0.23928276441806295,
                -0.6668874008037877,
                0.6639113747502191,
                0.10488064297098265,
                0.26598832385709664,
                -0.09545606037699379,
                -0.2650333162128549,
                0.10244370255308427,
                -0.1435590999209388,
                -0.05770995896022482,
                -0.0010511728681831436,
                -0.030960961347165222,
                0.02782304514273464,
                0.21578844471080263,
                -0.19414193391857337,
                0.39212411824107396
            ],
            [
                0.4110244167787565,
                0.2512336030763221,
                0.37636630307204305,
                0.050189606570428716,
                0.15199446835047742,
                -0.03866363528614417,
                0.2054708292851743,
                -0.38539677222898006,
                0.18239814796192524,
                0.4554638133912762,
                0.03622931196679153,
                -0.2534412226025803,
                -0.07145959178814319,
                -0.3538163319404679,
                0.10639719770949858,
                0.1507055963022066,
                0.05649813236275149,
                -0.009431409710618283,
                -0.1570671171520141,
                -0.41130841181536637,
                -0.22028056732387466,
                0.382604883760801,
                0.1382473869709488,
                0.14266678371654157,
                -0.050923721082036535,
                0.044738713920166394,
                0.056486382450500666,
                0.1625733527754158,
                0.2477170626504968,
                0.1025576580963759,
                0.0017121834787311352,
                -0.07569228763765327,
                -0.013747619269866342,
                0.01765667054348848,
                0.10230937757269634,
                0.0858571069540099,
                -0.061493925861279684,
                0.05151443171341773,
                0.1945652269524258,
                -0.02602527032815675,
                0.02033709207213369,
                -0.1332005145918002,
                -0.007271137631953548,
                -0.05924722188237579,
                0.0651113372958586,
                0.07603980616160563,
                0.18310830140518192,
                0.09214914457157872,
                -0.03795368341682348,
                0.032307010282959195,
                0.05328576027445953,
                0.17492115348351103,
                -0.02294572841167126,
                0.05706861753182759,
                0.09044664899088342,
                -0.07636197336096699,
                0.14082565529996519,
                0.14586175153572087,
                -0.10658740880403032,
                0.08766620139140929,
                -0.021000087593064078,
                -0.015140731359850869,
                -0.1690567630034583,
                -0.2507854210972629,
                -1.2227860111764703,
                -0.12473737473115677,
                0.2478852504999185,
                0.27428972658215944,
                -0.10181414406258972,
                0.05869308223275641,
                -0.07785222717123469,
                0.022545808452150574,
                -0.19720245316242566,
                0.14091462498634919,
                0.005530607551139627,
                0.0566825645859497,
                0.12155508579203289,
                0.13123328195314524
            ],
            [
                -0.10249230145950203,
                0.18331295122033128,
                -0.11769838319217275,
                0.05737101854458499,
                0.20878572316060046,
                -0.21846582077965176,
                -0.1693221872693655,
                -0.11908355823207556,
                -0.18264213465007068,
                -0.18968943738780716,
                -0.12878185555735683,
                0.0015370990328132323,
                -0.20898118155693385,
                0.188289928215693,
                0.09954681851527744,
                0.0740195052419057,
                0.0715731203252193,
                -0.043588613572468675,
                0.1373321841127381,
                -0.11767822919275019,
                -0.07295211365020401,
                0.2224862868028559,
                -0.04220330933303472,
                0.27027458151250466,
                0.014381570528901735,
                -0.20213391264695912,
                0.3954231797436219,
                0.168283800521389,
                -0.04412405370562667,
                0.26261341401344657,
                -0.09690300424065204,
                -0.09039115746623712,
                0.19309997074994925,
                0.05509673364498233,
                0.1552366149730481,
                0.2055688202090651,
                0.0051071877207873985,
                -0.147797322490797,
                0.20274725330374022,
                -0.14917929830942142,
                -0.0500605407734785,
                -0.11053282667428217,
                -0.03208892053946021,
                0.078567516302115,
                -0.014325504931700097,
                -0.1782520583000969,
                0.34568333644588245,
                0.06502998498205095,
                -0.08168641242933122,
                -0.0055893762068059205,
                0.005202339362237098,
                -0.12541901144596215,
                0.33363639564466624,
                -0.13064910648880115,
                -0.021662639339414688,
                0.5447466283362158,
                -0.12634896085448,
                -0.013025375937161679,
                -0.25935865977282213,
                -0.12566036656270496,
                0.22558342440937773,
                0.0898417016542921,
                -0.20717206233265087,
                -0.12323126364913954,
                0.4976708163768301,
                -0.4658883093112694,
                0.007942273356249875,
                0.18232998279209978,
                0.020159064151294995,
                0.07651799227575239,
                -0.12736174719786883,
                -0.15079735965699634,
                0.011258237525502866,
                0.05858166974884531,
                -0.22268996681328965,
                -0.13977937973338753,
                -0.06716465351061904,
                -0.3474374939265652
            ],
            [
                -0.002639408205760456,
                0.08847573052693045,
                0.17089041585570655,
                0.3825264947822013,
                -0.2540871235398658,
                -0.29441169830560304,
                -0.10479753893653798,
                0.2357203317280654,
                -0.16509874433648844,
                -0.22076378676745653,
                -0.0008212483971818063,
                0.2645745318021114,
                0.01848653124605817,
                -0.10186054513041563,
                -0.2674774278657809,
                0.11245257332181398,
                -0.02106014434109189,
                0.1667608188152391,
                0.26584114333758124,
                -0.08889002150197459,
                -0.32352954936219214,
                -0.19970583936340278,
                -0.138109894534734,
                0.6387219273037719,
                -0.07979590658339701,
                -0.02563924050429689,
                -0.12914958944427524,
                0.14460722372180299,
                0.12791731677197365,
                -0.14224125958214456,
                -0.07162428239625541,
                0.19758763750745564,
                -0.0572280004801867,
                0.10139182266265373,
                -0.05543038907254996,
                -0.030821753925195934,
                0.13169433130880817,
                0.025905877042384663,
                0.061858179492923535,
                -0.007645864987379416,
                0.0375102828632641,
                0.09162868398885766,
                0.15207526935115956,
                0.018809340390977224,
                -0.031551821648370844,
                0.12022561549214421,
                -0.3032623475944509,
                0.10029447673582281,
                -0.07061016468043836,
                -0.06111026970960763,
                -0.010763455977538071,
                -0.12527425099341774,
                0.15215727120507452,
                0.13775992369714793,
                -0.20365582474795701,
                0.1683022899309252,
                0.07349919277487987,
                0.04636674242536994,
                -0.1732460473955991,
                -0.09779129837977558,
                -0.28630487547111266,
                -0.003912200496262473,
                0.11443605283191896,
                0.016495407581394922,
                -0.43904768132730493,
                0.28498788088339666,
                0.03955915778241805,
                -0.06686007008787109,
                -0.22087181501077086,
                -0.273722776962976,
                0.09895254875899091,
                -0.06690874410638022,
                0.09096964193749629,
                -0.06646795102019834,
                -0.0019299901800408986,
                -0.139102258608044,
                -0.052062479456105655,
                0.10850862767641052
            ],
            [
                0.0053318190123858725,
                -0.057336949619159645,
                -0.053753851379773114,
                -0.007305526886317001,
                -0.020571613476623445,
                0.002353598941644582,
                0.24958400192320465,
                0.07741215207853895,
                -0.47134468423683074,
                -0.5189065690842635,
                -0.029690662517936058,
                -0.17837433630104263,
                -0.0651727989917935,
                0.21954146196608246,
                0.300825022185238,
                0.1719776285229975,
                0.06087618775742473,
                -0.19669068792325212,
                -0.019963204295132972,
                -0.012183264780135695,
                -0.01348211908622067,
                0.09523760071801828,
                -0.11007080324581348,
                0.01874388913728849,
                -0.2051356472081782,
                0.054842877478243145,
                -0.0033523602937015613,
                -0.02671269668978423,
                0.2525976420048054,
                -0.007502469537998568,
                0.005771052932285846,
                0.2548943714039631,
                -0.040134082491629954,
                -0.16024137456585172,
                -0.34119990055972227,
                -0.1531655906285664,
                -0.2724798655784298,
                0.1903329818764793,
                -0.18032491057943542,
                0.10592042841568257,
                -0.16035195439147296,
                -0.3078558826179239,
                0.046844338218611545,
                -0.22385803755230396,
                -0.03631713127268666,
                -0.06821012498701255,
                0.3176303003173191,
                0.3954251936408025,
                -0.20794019707140235,
                0.08981758109610453,
                0.2065194765824575,
                0.10452425140237204,
                0.07750549638185861,
                0.15838262284716606,
                -0.08708988271457514,
                -0.2862541669493355,
                -0.03359984050591324,
                0.1894519202088852,
                -0.06315609741357536,
                0.012188819488684763,
                -0.09513194875483176,
                0.08278478760510156,
                0.3789900420469666,
                0.16846561936182894,
                -0.13075708782631054,
                -0.16131262277521943,
                0.058984166511026094,
                0.08004248273667124,
                0.12213047502949971,
                -0.006545779589860661,
                0.0719125628721246,
                -0.12708403304372345,
                -0.3101597124816504,
                -0.016495087308317086,
                -0.22389909253710005,
                0.04684479518580648,
                -0.1179645611894712,
                0.138394176516672
            ],
            [
                -0.1111904532200454,
                -0.20908268255464374,
                -0.11758016573585779,
                -0.023796451168988316,
                -0.03408111730063853,
                0.07839253473949685,
                0.2702314543497966,
                -0.014996117707009132,
                -0.09075704751737086,
                -0.06169535147415214,
                -0.07969316724849694,
                -0.16440027698690515,
                -0.07811699369788137,
                0.39539825822060015,
                0.5302498008551492,
                0.4964659165536555,
                -0.07400078855517465,
                -0.11815935160390625,
                -0.16474458347909687,
                -0.08786026724548683,
                -0.021228748822886962,
                0.13538124428877774,
                0.3958674691566311,
                0.00906814936999155,
                -0.1344756188454101,
                -0.10920634782570937,
                -0.23461394161493582,
                -0.12352992124399353,
                -0.07485338610086169,
                -0.06798242309330647,
                0.16674963695770442,
                -0.10265192860109164,
                -0.03130261213201991,
                -0.1316796693035316,
                -0.14057110450650437,
                -0.14875175814254463,
                -0.1676668141780631,
                -0.1257243244217017,
                -0.0036964808146293633,
                -0.17019365497056174,
                -0.07627157010452364,
                -0.21365914467069672,
                -0.0792973117223948,
                -0.10813534604686298,
                -0.18335464321773068,
                -0.2368631480252424,
                -0.12230848500101474,
                -0.19510243367703214,
                -0.07270935985664448,
                -0.0779050123624551,
                -0.17425519752221952,
                -0.08063488668702004,
                -0.017306035883121906,
                -0.5823812867866426,
                -0.10088751769694689,
                -0.15996661603599205,
                0.03427907486181748,
                -0.10166754103186092,
                -0.1338718462423318,
                -0.1589341603711363,
                -0.15739905470666368,
                -0.2326191175064376,
                -0.1684221395713475,
                -0.336957312878428,
                1.7697260801095178,
                -0.5361806078922129,
                -0.0826984462842555,
                -0.054825365592032965,
                0.17638121947607788,
                -0.08963885070650489,
                0.032163093511567396,
                0.10986845358035494,
                -0.24712362729280998,
                -0.08732346926518438,
                -0.07875361667161454,
                -0.03280265576482143,
                0.11061278850567346,
                -0.02570923919529951
            ],
            [
                -0.07357392268908737,
                0.20984167724788705,
                -0.5013602242910229,
                -0.12579023046485543,
                -0.20238344099229616,
                0.0662029225510571,
                -0.4540925042621871,
                -0.2668893947253297,
                -0.011601947893732645,
                -0.07872013380370667,
                -0.09466541631035516,
                -0.017544821947666486,
                -0.11545853862123523,
                -0.2898987298350931,
                -0.11040978253726905,
                0.022522629727431877,
                0.08936025083243138,
                -0.11653246678530084,
                -0.18078889897530817,
                -0.4868460830504323,
                -0.0390554757026369,
                -0.07942190173260524,
                0.0925592170858662,
                0.27029047752130364,
                0.1439966190526898,
                0.015181897315888397,
                -0.13120545609286827,
                0.005976811052625642,
                0.05489827639131943,
                -0.07202327057489967,
                -0.12169389489306322,
                -0.18797689821854618,
                0.04646942389904545,
                -0.0770476266054315,
                -0.09178204786265624,
                0.17635584194370316,
                -0.005550122244116373,
                0.07990795868656102,
                -0.14206796512038797,
                -0.02427189771342482,
                0.05151987703065495,
                0.011503130905018604,
                -0.07557671776850214,
                -0.4115304404454671,
                -0.23241830806092156,
                0.24918698988894558,
                -0.08978027878692162,
                -0.01988142700865896,
                -0.1365980957735305,
                0.07176675001925961,
                0.331102056212108,
                -0.20053125972648958,
                -0.132535912042939,
                -0.20007321479604862,
                0.3506640841871094,
                -0.11508426076226672,
                -0.05558811847850259,
                0.06254918558727877,
                -0.03679670834551871,
                0.10882748846825017,
                -0.013411021641407537,
                0.026669014945669398,
                -0.01631692277104166,
                0.8046413936563209,
                -0.481801085042566,
                0.056576880389597586,
                0.14079412065383384,
                0.0771115380259191,
                -0.23106615203739503,
                -0.03513352722877014,
                0.0032803059845629636,
                -0.06390636218670744,
                -0.16610204355834585,
                -0.13595657192272867,
                0.11328096103136581,
                0.3506971964339565,
                -0.03173303620676335,
                0.024678558282541646
            ],
            [
                -0.007945125711793425,
                -0.07376221400799643,
                -0.05456092347803152,
                0.1149675284016395,
                -0.014416793851018617,
                -0.06203690294314482,
                0.2440065193212779,
                0.025121882848955127,
                -0.079409540628724,
                0.09091581743023565,
                -0.028501186162838664,
                -0.08567731913963306,
                0.18119527985872058,
                0.23347851887022764,
                0.46203463416610563,
                0.4730207632236165,
                0.1567512631032969,
                0.21401500638093943,
                0.2062514358688538,
                0.10664611547574963,
                0.06006457303466998,
                0.10878765356365777,
                0.023504149803372665,
                -0.10565535014152361,
                0.016417638969202956,
                0.03690758584302653,
                0.06590293278944644,
                -0.06165595828396962,
                0.00866761835990307,
                0.03782667159018439,
                -0.030988473892304687,
                -0.09752392694765658,
                0.040525208230413765,
                -0.011060676401017567,
                0.03762716429396277,
                0.24979433367991263,
                0.010704245821131877,
                0.15385672604409412,
                0.0704831240334402,
                -0.39678025232973635,
                -0.07189432214012989,
                -0.2068972752143765,
                0.08783612397448204,
                -0.13369339526905316,
                0.13383686542832732,
                -0.00787051592294989,
                0.08339769756719131,
                -0.17748852719240868,
                -0.1259889307955187,
                -0.14236177889780582,
                -0.1517919617462946,
                0.2226829361735762,
                0.04004433212414368,
                0.7576425896037782,
                0.17780137530962756,
                0.30185522792891617,
                0.1759634219601284,
                0.25524667273248475,
                -0.009023808121914143,
                0.04489870743219295,
                0.0032839905864457137,
                0.04893888349842485,
                -0.04393958447826333,
                0.5241145367901838,
                1.2163317825681024,
                0.16026141518422612,
                0.05567912341624027,
                -0.1608183074062416,
                0.02598763186223501,
                -0.28737607305369944,
                -0.3364925855351054,
                0.08934192196187661,
                0.06570332955258712,
                0.05619592195814496,
                -0.1247575355557443,
                0.08541412571743444,
                -0.17312484717540358,
                0.2597616366398363
            ],
            [
                -0.006311221855884548,
                -0.5290394735042222,
                -0.6116199362491663,
                -0.159161730919208,
                0.20299267994231243,
                0.3236418138450941,
                -0.1855572598725381,
                -0.003945464781619217,
                0.21314943316111082,
                -0.005317164894317585,
                0.09120363716808814,
                0.16603784336023925,
                -0.056052660256054085,
                -0.17953670361354726,
                -0.14644075395920275,
                -0.0004924122316844675,
                0.16942171838854883,
                0.2210574638585205,
                -0.13125179058011327,
                -0.3264227030943254,
                -0.02263161290674285,
                -0.2791383587521274,
                0.06112916889764322,
                -0.19648676175362673,
                -0.1562849288089182,
                -0.018563557948207694,
                -0.25746310001878847,
                -0.164781320726637,
                0.11413139336523251,
                0.21222450931872777,
                0.6135591304151121,
                -0.10811360063302189,
                -0.09168072486718512,
                0.14982453684302302,
                0.14248383569495818,
                -0.03802251231413426,
                0.0064116481936689965,
                0.11516260245661533,
                0.19979580945828135,
                -0.07022796502503757,
                0.01961481613248676,
                -0.016598605604864005,
                0.05556505155210062,
                -0.2393838471730542,
                0.010432210343861869,
                -0.1316552849689961,
                0.2217592619208094,
                0.02673757754226606,
                -0.07247699347578584,
                -0.07294449217286922,
                0.037511453313345225,
                -0.030483203964107506,
                -0.09938470298201149,
                0.08015095702287994,
                -0.06234099845469193,
                0.24830963217501834,
                0.045902923167681256,
                -0.15033721101088127,
                0.04914177153749872,
                0.30186145942485104,
                0.022554230548956798,
                -0.31524909663417633,
                -0.1509841457906506,
                0.07457928313596003,
                -0.33975837858132907,
                0.09043375961463936,
                -0.20060129254678896,
                0.051749542628767096,
                0.022763393311791856,
                -0.009655374048970223,
                -0.11698342874285456,
                -0.018352082634643104,
                0.18093985999915455,
                -0.041936978967989466,
                0.10566832133104102,
                -0.06274731861269169,
                -0.35823007150141756,
                -0.3936001202348377
            ],
            [
                0.11685182497408671,
                0.06344981887801879,
                -0.0056106749791433,
                0.02371796682743549,
                0.22892286796372133,
                0.15949272942986145,
                0.515125244638299,
                0.876282809660875,
                0.028686684824330105,
                -0.15675378184612737,
                0.14420406406504244,
                0.09244076035215874,
                0.23228267776728517,
                -0.5683069297715245,
                0.20596417779867998,
                -0.024374017352145474,
                0.086415985745066,
                -0.06590278758407261,
                0.0995100028307878,
                -0.0048851588425397096,
                -0.3967368449819436,
                0.19849393347637256,
                0.2079831200878212,
                0.0017323608519963876,
                0.07926865272481244,
                -0.034962396571745824,
                -0.05505154501091531,
                -0.34572725062009807,
                -0.12629053553538583,
                0.051226582307938376,
                0.07529850850464813,
                -0.24872364221024465,
                0.031556458548855366,
                0.022523222267498873,
                -0.15018150342066133,
                -0.11063154814376404,
                0.1040790364608877,
                0.05993982942171286,
                0.0901432228015682,
                -0.07793334948541042,
                -0.02880708487026848,
                -0.14415334114621936,
                -0.02032595160080963,
                -0.09227683422628868,
                -0.04496772847322124,
                -0.06520790215272554,
                -0.11243794777921304,
                -0.08162780865734413,
                0.07531483761590506,
                0.01269068990055306,
                0.02472718030176677,
                -0.07148865609541993,
                -0.16569272527882742,
                -0.3497182272229437,
                -0.20196368826623803,
                -0.3755473238192899,
                0.2490484670620276,
                0.08809683261003465,
                0.24376592365538843,
                0.304314938701407,
                0.009504130586441862,
                0.21298992378843332,
                -0.10402433607053543,
                -0.2092070489449263,
                -0.645214807482713,
                -0.20969859180936629,
                -0.14570353837171895,
                -0.45768706325646413,
                0.17758167185717832,
                -0.14868303326611182,
                0.13692958342395037,
                -0.21727674369864894,
                0.07446944904032947,
                0.2012756855531741,
                0.0807367707118359,
                0.12775648119581567,
                0.3096699126845787,
                -0.016455823602576886
            ],
            [
                -0.08871591635214886,
                0.007594027572227902,
                -0.0403883931041442,
                -0.055401962276152426,
                -0.08535411430765504,
                0.10725913071905913,
                -0.24090111030622396,
                -0.06920760400786813,
                -0.08349933611510604,
                0.07950925323867225,
                0.17236858643234518,
                -0.0036097288929165597,
                0.05334078869584599,
                0.008306919816645867,
                -0.05642931744058062,
                0.2023880548514271,
                0.19969482924944537,
                -0.2191671485779565,
                0.06432823887114858,
                -0.012375168180764687,
                0.061527594309521844,
                -0.0973487253253754,
                -0.0895981307762341,
                -0.15074644733274584,
                -0.17947267229301236,
                -0.22044203568906157,
                -0.11362434772824692,
                0.18120961435011745,
                -0.032574379740011906,
                0.1669730966805105,
                0.11890774798299276,
                0.11082473690455234,
                0.12076538110062462,
                -0.07176087210292563,
                0.05063286706207015,
                -0.11381495178444903,
                0.41090917257557336,
                -0.018931161181623486,
                -0.07283621267029333,
                -0.145999624004604,
                0.13300914383835427,
                0.07106419534992287,
                0.1058134508429837,
                0.10142495395714125,
                -0.2788471641218432,
                -0.19768249421880865,
                -0.12124750561562804,
                -0.18893328235304316,
                -0.03407593464541522,
                0.11168863599689184,
                0.11168329186764776,
                0.1157411886235703,
                -0.017777261166658894,
                -0.35701772408596294,
                -0.21875729219412907,
                0.010918123202866302,
                0.0740780685413242,
                0.14484936269433293,
                0.08009206047995047,
                0.10675559655456908,
                0.13473180367772797,
                0.3023493580229352,
                -0.5211940606941217,
                0.40816162601883077,
                0.5226203574744323,
                -0.04073439280884713,
                -0.004995850886386709,
                -0.33890995847919464,
                -0.01426951536522489,
                0.08772891738525214,
                0.10553479294473345,
                0.0005782181082994583,
                0.12335546884603267,
                0.07062174227375313,
                -0.17361559038278707,
                -0.11415752315552685,
                -0.14757623341199488,
                -0.07291216970987163
            ],
            [
                -0.1465931219412295,
                -0.05327139923786859,
                0.004441810966058792,
                0.3251793565430295,
                0.2972521215077796,
                0.3973762622473038,
                0.49829093809348907,
                0.06270268760862421,
                0.12174010797897097,
                0.09377138450964648,
                -0.06457867576271356,
                0.08128340308339442,
                -0.044214359184378674,
                0.4143882590975383,
                0.2814605633972361,
                0.8335457803680335,
                0.04496690403093434,
                -0.041785985453661204,
                0.07210139095437706,
                -0.01271610043461802,
                0.14798137606378156,
                0.24284269882874446,
                0.10684534715713313,
                0.2696351331689249,
                0.0684457421536239,
                0.009788405063806432,
                -0.015066515916200632,
                0.07841117386735336,
                -0.1100402274783614,
                0.093380619449403,
                -0.029771384298314656,
                0.13241788622640302,
                -0.03692842449970404,
                0.15514857905637344,
                0.21342505313156573,
                0.021676335975848907,
                0.07744025634370265,
                0.0332950153319944,
                0.01785079360237121,
                0.01650450358465661,
                -0.03906888831838961,
                0.29140060697075626,
                0.1929974814477015,
                0.20642683516110244,
                0.06295592329113565,
                0.04138343585990801,
                0.008680845416061313,
                0.07133025882396403,
                0.08365441696457326,
                0.13627318068337244,
                0.0340124392024914,
                0.1200019491927872,
                -0.10851207744379815,
                -0.058075086001959965,
                0.1066774437809022,
                -0.19686823935640443,
                -0.09359937166320548,
                0.168426571592785,
                0.001433423162224317,
                0.05581583163157162,
                0.028559222539708155,
                0.140041508448778,
                0.0044292263585135345,
                0.11558013593069509,
                -1.744638406804846,
                0.14519025315394457,
                0.04141345345839643,
                0.25967375167986023,
                -0.05412450557252101,
                -0.025163445292287055,
                0.05707056930642649,
                -0.3724317783550837,
                -0.11923211450959223,
                -0.16665152997098862,
                -0.17792998982512404,
                -0.12713898506558208,
                0.1525455098113592,
                0.15275880702675226
            ],
            [
                -0.030507687508017522,
                0.031931720562407125,
                0.08273622368050919,
                -0.09850099949034481,
                -0.21092601610239256,
                -0.2481580876021569,
                0.27587067144218125,
                0.23550507101532298,
                -0.13845513378255406,
                0.007591299129691138,
                0.01393156609626357,
                0.10858361451359028,
                -0.08672198269254434,
                -0.21105459589477374,
                0.3818540831343804,
                0.26850970515055755,
                0.045016551460455814,
                0.14547113064096337,
                0.14255025582733286,
                0.36367477164499834,
                0.07279178607090031,
                -0.10235775065243524,
                -0.10191996494719512,
                0.10160959446013014,
                0.014421152721323376,
                -0.003104749621708603,
                0.1621788593637846,
                0.03791998076743925,
                0.1799943994441969,
                -0.012650101956866156,
                0.1308869435075795,
                -0.10741902038153049,
                0.15389174209143927,
                0.1985391322967953,
                -0.016384821604471474,
                0.12824315117685212,
                0.17700339123265435,
                0.10026097876216143,
                0.1376007059493794,
                -0.12822850691011003,
                0.07850233798042097,
                0.05888032887508824,
                0.2462839076775779,
                0.010106468680278412,
                0.07286094928194249,
                -0.06799780399694359,
                0.17487405017996757,
                -0.14846805556073203,
                0.31796901614145956,
                0.34977034505195015,
                0.2970588898584591,
                0.1429082449539268,
                0.11808841204543573,
                0.05357230796696055,
                0.2006141116099743,
                -0.07458242185975844,
                -0.018447413605484485,
                0.4530162094691345,
                0.19552779402352702,
                0.18002441575503897,
                0.0629739585048638,
                -0.1734590905099508,
                -0.23125272602029015,
                -0.31917247220097883,
                -0.23554549323980564,
                0.12975737847163105,
                -0.30279119675705196,
                -0.13170087360585828,
                -0.30291869485152834,
                -0.03630683800816346,
                -0.16953825446798254,
                -0.19849642332258136,
                -0.043571520571738444,
                0.17407555829264726,
                0.16111109619461583,
                -0.05302106859451524,
                0.018836904305408967,
                -0.14516393057658322
            ],
            [
                0.09746268334001737,
                0.2399067329778064,
                0.21965646685961346,
                -0.048209574275492696,
                -0.028087667827429413,
                -0.27660267046349724,
                -0.15769553435090153,
                -0.009797653286507613,
                -0.1756628013818605,
                0.021433074639201213,
                -0.1757460752985626,
                -0.12974814160580528,
                -0.17203279334586977,
                0.026199010700047418,
                -0.447603137389697,
                -0.24324240276145245,
                -0.13446625515113209,
                -0.25473978357281685,
                -0.0738691361318187,
                -0.18098888040864983,
                -0.30942817238998205,
                -0.038772216814168474,
                -0.2479483516701213,
                -0.25668046416667906,
                -0.05470425734445937,
                -0.15507555848188867,
                -0.06892951932486883,
                0.206995525989623,
                -0.08567206346584201,
                -0.07003396307087931,
                -0.31883535489990655,
                -0.2337844155855173,
                0.05468330167796883,
                -0.24052825201936992,
                -0.19984252726498988,
                -0.07915690145939898,
                -0.226330020618223,
                0.024055400927964262,
                0.0678458856440912,
                0.1358437863930747,
                -0.05841433297619611,
                -0.07791940660097219,
                -0.16425130482593558,
                -0.27408815067089837,
                -0.33393502544448245,
                -0.2922130188911411,
                0.04509213714593276,
                -0.06928524478215653,
                0.30148149282658926,
                0.41881983095334807,
                -0.09785009778488034,
                -0.023392652381822022,
                -0.05975165735849518,
                -0.04882313570708948,
                -0.22158207332438387,
                -0.21163438715375507,
                -0.21296638592513906,
                -0.027981660861815565,
                0.025170871335155363,
                -0.07768438512443249,
                0.16949460810374334,
                -0.11007425972539811,
                0.24449151812999464,
                -0.1383209441622691,
                0.06439906705060067,
                -0.04510078302385291,
                -0.06979043577008964,
                -0.05330549763351289,
                0.017844364776743286,
                0.3823277569503057,
                0.051322049038066954,
                0.0012262110308906816,
                0.20575071993292404,
                0.05539954006638298,
                -0.16357848274753425,
                0.03609725151746852,
                -0.12459983241379731,
                -0.1341289808085387
            ],
            [
                -0.02792538999685294,
                0.2141207870809144,
                0.26512823989333645,
                0.3361956338056274,
                0.2161844742423769,
                0.16327583961167844,
                -0.12166002453141923,
                0.04354226197045165,
                0.06314090255564772,
                -0.10022403023626257,
                0.0356538929442566,
                -0.1356467566651906,
                -0.02515573509151151,
                0.3079804930569268,
                -0.010053512575465525,
                -0.15539809074553335,
                -0.12882620263324682,
                -0.1706414233316054,
                -0.03478186974756868,
                -0.13397944902762096,
                0.07795547815198756,
                -0.06621626274238794,
                0.11260137872007574,
                -0.3248672844399838,
                -0.04686136711718023,
                0.02683048031915241,
                0.05348769038546685,
                -0.0626352095706363,
                -0.25681678917463685,
                0.1578468345740826,
                0.2064416151667897,
                -0.3922282255508695,
                0.10776148538097355,
                0.11385298179608434,
                0.07981405497519588,
                -0.08547826875636616,
                -0.00920564857120994,
                0.031587287362958225,
                -0.10594535867038063,
                -0.32195399690980603,
                0.31229964257630943,
                -0.06378456992852524,
                -0.010517257731575998,
                0.031839040047116934,
                -0.03210353692994981,
                0.3647338332920311,
                0.11224477876045114,
                -0.13240992913741204,
                -0.03495782066687792,
                -0.07218166691992672,
                -0.13897083622960135,
                -0.054956265104976226,
                -0.27182547424659553,
                -0.000975950837982315,
                0.014772526357749899,
                0.34448844087118596,
                0.04394902827994451,
                0.04439902655713975,
                -0.23873929761729998,
                -0.13883440865686023,
                -0.01811953570147804,
                -0.15373985015427535,
                0.04472465699332915,
                -0.4972391825152675,
                -0.02981916173321243,
                0.28770374576444446,
                0.06878622561590314,
                0.027434694574119196,
                0.07177637548050278,
                0.053401348101480985,
                0.13052662443045643,
                -0.17477997121657188,
                -0.09104415018894178,
                -0.2090640727100665,
                0.06530802021146191,
                0.09146369163374836,
                0.07512832460361481,
                -0.28397730020112305
            ],
            [
                0.008271726617568073,
                -0.043735288861464924,
                -0.10726233049344168,
                -0.04036229120578605,
                -0.0767749833834969,
                0.16158603419893633,
                0.1300370105280378,
                0.014137638200639817,
                -0.2884032839043212,
                -0.05852995929065852,
                -0.20024726842126978,
                -0.07668598908268999,
                -0.11168619896525096,
                -0.025290186201232284,
                -0.16489774292381967,
                -0.020016999472810885,
                0.07865405699742807,
                0.05066466346397958,
                0.008874949543530455,
                -0.257858054078104,
                -0.26379937394068753,
                0.11815291839037972,
                -0.25543939282133915,
                -0.005059933161540285,
                -0.0574553508651841,
                -0.18624423597413564,
                0.10442716643003996,
                0.016519429430565502,
                -0.026316676511245213,
                -0.020624367034711474,
                -0.3086058740828234,
                -0.008595954655798297,
                0.12763662671362272,
                0.05123243960201949,
                -0.16492413085389152,
                -0.0874453834299055,
                -0.08590560282414846,
                -0.1628147476253499,
                -0.20123583695903796,
                -0.20893099241887608,
                -0.06044256193335337,
                -0.12352174567875279,
                0.01696236426238843,
                -0.017358978877264068,
                -0.07996680141697753,
                -0.1622181081105699,
                -0.07382792736422505,
                -0.07615543720779336,
                -0.25011385162625044,
                -0.011420443270859441,
                0.10215041391312882,
                0.11596432841487987,
                -0.12273750583662016,
                0.10926786164499512,
                0.13917376746503357,
                0.08189091270681673,
                -0.1970951980365566,
                -0.5406723543748176,
                0.8142902187424196,
                0.2649602904133726,
                0.07931854864285086,
                -0.03249756263042415,
                0.14476548999972516,
                -0.18571589350540468,
                -0.1760663644431686,
                0.006188990009624686,
                0.007120125976827659,
                0.07532155752449582,
                -0.22491392701308166,
                0.22902181142985947,
                0.1734211342936241,
                -0.07377217420109193,
                0.15785670860244463,
                0.21319296599273546,
                0.05936991750859663,
                0.1434933340643941,
                0.011278432440131556,
                -0.14929186229575747
            ],
            [
                -0.03287977099262857,
                -0.09272655184405108,
                -0.07543721585355988,
                0.00045464432379311524,
                -0.00592037379718725,
                -0.21175707372982883,
                -0.1292974440187615,
                -0.10097481668990733,
                -0.106437864733527,
                0.014706961818832067,
                -0.0744356831610615,
                -0.2833403531113156,
                -0.08862919056664219,
                -0.17307355351368908,
                0.032078545625720406,
                -0.004958004438161912,
                -0.13832558255342056,
                -0.023053893492692313,
                -0.002805396836962237,
                0.07692516946280777,
                0.11652865609891687,
                -0.09572669737815163,
                -0.044540115199317595,
                0.057118516439897474,
                -0.06311174832416726,
                -0.03343655986685308,
                0.03904093151330521,
                0.08438060532393085,
                -0.03744410294620031,
                -0.08907157351699956,
                0.10345612871551753,
                -0.02325266563936967,
                0.0414474596277337,
                -0.07295958425425957,
                -0.13346100069977457,
                0.012526556823829657,
                -0.183096429453014,
                -0.1359791368319302,
                0.24050177172321685,
                0.01152369061567771,
                0.01751850092758509,
                -0.1509454468945348,
                0.12120554991671903,
                -0.11262397940797936,
                0.20540439425610332,
                0.029517497091852675,
                0.03476797154359736,
                -0.1698743711980253,
                -0.09271339179969251,
                -0.13467124142206768,
                -0.14229200834898056,
                0.14267025449461923,
                0.049781711839061764,
                -0.12512010895451292,
                0.15895426618474087,
                0.03914113718623387,
                1.3520418856986427,
                0.7301195145371911,
                0.07134352019419037,
                0.1357767872763876,
                0.3311599507036333,
                0.3325630509954283,
                -0.017202722859864825,
                0.10852291637951869,
                0.44602112728852134,
                -0.17089035103197153,
                0.08160525028836745,
                0.03112996267580696,
                0.21218439567170727,
                -0.12824459952191192,
                -0.21823591895715286,
                -0.21959878034782623,
                -0.055274698989675235,
                -0.05231573977570852,
                0.05151521399437417,
                0.23909744309168207,
                -0.1466075955997159,
                -0.34499656095457143
            ],
            [
                -0.042783460724727856,
                -0.3086622178081719,
                -0.15358613129317142,
                -0.05366622598390345,
                -0.19801410637346947,
                -0.6929100855526467,
                0.5277915973739215,
                -0.03244157230919141,
                -0.057315492636222286,
                0.05920945606321251,
                0.030815735198422924,
                0.1614085150964022,
                -0.004825610080835626,
                0.012389808559841814,
                0.07581897362741515,
                -0.1794195244247955,
                -0.17636882711315027,
                -0.09585191442679165,
                0.1212515121620912,
                -0.07214346031412644,
                -0.04126818390757517,
                0.0566563594690994,
                0.16956778913851805,
                0.06368169696636435,
                -0.14735492561652222,
                -0.10845021937563722,
                -0.02398627882315089,
                -0.1408625689898595,
                -0.07499799424646152,
                0.14535208348732248,
                -0.01722861534921919,
                0.041572294813193994,
                -0.24723822857779812,
                0.13134325829687699,
                0.3234381102302437,
                0.025562609830757914,
                -0.02114241053258896,
                0.13025013953006528,
                -0.12673758996047374,
                -0.11684235283555093,
                0.3688123266811055,
                0.4613030145646247,
                -0.031017621370648816,
                -0.1629553417475341,
                -0.079330217805643,
                -0.06698388477033033,
                -0.14277986526927278,
                -0.050486035185893396,
                0.03911801260294413,
                -0.02007928535861932,
                -0.09798716404151002,
                -0.029089474374524325,
                -0.04705400599379519,
                -0.32385515509571494,
                -0.034189888280564,
                0.0963022444060173,
                -0.057182383796569626,
                0.003822578638215943,
                -0.3126837968062538,
                -0.10894427809125369,
                0.1871654389175641,
                -0.052686813673219174,
                -0.009288657747511581,
                0.15226427273298307,
                -0.2913123961179719,
                0.11202861702792828,
                -0.10727446252263115,
                -0.19036360170283695,
                -0.03682904614526047,
                0.03644675351833833,
                0.0827305605836584,
                -0.1732656816537768,
                -0.00043067088805821504,
                0.08765557738716352,
                0.21765370537572293,
                -0.24464680614402934,
                -0.05641725866721889,
                0.10635999614163463
            ],
            [
                -0.4162674085183987,
                -0.3835299128018967,
                -0.21573852110302263,
                -0.32699737068272516,
                -0.13530924917545212,
                -0.12288317850003996,
                0.04263704751216795,
                0.9118894380448815,
                -0.34044887675132995,
                -0.20029340605048698,
                -0.11022808402069398,
                -0.19797468737116217,
                -0.10137086258185626,
                -0.05167720695343164,
                0.01692334801820198,
                0.30631482808636895,
                0.11238455495767508,
                -0.021126399204306888,
                -0.2275504727140301,
                -0.20435955604411518,
                -0.06550852674734692,
                0.008962955873279742,
                -0.015162780836147161,
                0.36036119382767806,
                -0.13666041683581287,
                0.022468894783196452,
                -0.18710010994617995,
                -0.23754960784674645,
                0.022735131426014382,
                -0.15651228237289022,
                -0.12893344416226327,
                0.27310456010228346,
                -0.02319671331313797,
                0.12301344591125334,
                0.09460383138450032,
                0.07988950603676769,
                -0.08037566220046778,
                -0.14617916986918225,
                -0.10844587597739601,
                0.20223999882824378,
                -0.046150948640636104,
                -0.03617797008351818,
                0.1566442420775738,
                -0.09194052785745171,
                -0.32080101746560163,
                -0.053628698283218854,
                0.09134828396827847,
                -0.03530959575394317,
                0.05556192059071678,
                0.01925789909423965,
                -0.048676249998190584,
                0.16962810324011413,
                -0.07980955231819448,
                -0.11946264600258588,
                0.06011027290362918,
                0.0530468695442654,
                -0.041866393111940174,
                0.03664012255748315,
                -0.22945527205823185,
                -0.13077338443884087,
                -0.041692969683026326,
                -0.20788844427795997,
                0.0017293785539981852,
                -0.005901907186032661,
                0.07061648253313628,
                -0.0026704271576142003,
                0.07372866245531566,
                0.18135501081427427,
                0.0838622143304894,
                -0.03710307919069857,
                -0.06811411696225024,
                0.02169337439997955,
                0.0021439739179666497,
                0.11474321252347659,
                0.17132538352851237,
                -0.2696748188853298,
                -0.012443283363649214,
                -0.18607000130968834
            ],
            [
                0.0590461248621084,
                0.15100686149299028,
                0.02488428480596766,
                0.06681620870768976,
                -0.00325027897933466,
                0.2792160227557965,
                0.03149654607826339,
                -0.05215288488107412,
                -0.10775371405174884,
                -0.06312161973354935,
                -0.17972098438910525,
                -0.0819313881290577,
                -0.5137310522008398,
                -0.25114732251686317,
                0.3293948845042235,
                0.3631682324287378,
                -0.05981449026937111,
                -0.23520149412648436,
                0.029750828069384023,
                -0.08245070504828549,
                -0.09940432549714588,
                -0.8296814633965339,
                0.027146365534912453,
                0.12411115418121497,
                -0.005885169096925463,
                -0.051569897091520225,
                0.156430787779958,
                0.004851014457119143,
                -0.05443626668031377,
                0.07955074975388696,
                -0.2353386814018772,
                0.033234393028177656,
                -0.10339031211291409,
                -0.18665444949330273,
                -0.04313850708728425,
                -0.0511268326344202,
                -0.018693384089042333,
                0.1262788671586784,
                -0.021337544212526687,
                0.17036880284209907,
                -0.0843646782431653,
                -0.021877445464615525,
                0.08444424959393988,
                0.029581880609144826,
                -0.14701305597988132,
                -0.19145750422162547,
                0.15059777227644608,
                0.4143122179510561,
                -0.16447856883846593,
                -0.032996119304736386,
                -0.10251081515235876,
                0.0662818067464542,
                -0.04875851154120904,
                -0.011721997864955012,
                -0.10069672932710425,
                0.613669193279987,
                0.19485257557370086,
                0.20107404544135218,
                0.03980651698326398,
                0.24704584383285133,
                -0.11039670838932074,
                0.08633104501961862,
                -0.11953455711760706,
                -0.1336009929718311,
                -0.37162828827535466,
